-0.2200270171318821
0.726894522885275
0.15925585964390065
-0.2974435659954332
-0.9152140458072573
0.41006307517728857
-0.7442984814059731
-1.2946017641288527
-4.885381442236714E-4
1.1412801578682035
-0.847023864468249
-0.39757332548469637
-0.7129565192433696
0.20027009454634004
0.6708482423456754
0.3157792585457049
-0.009127944660135112
-0.11378891903295374
0.7300567233931168
0.8112645530067502
0.19180003383917876
0.26097571562011557
0.48210468270957474
-0.8882663301089634
-0.357424734373722
-0.49006404357947664
0.21715227118561053
0.04208003339209265
0.3305686933667582
0.48102307660213073
0.6103094500804795
-0.2055736865151352
0.03556745243351633
-0.9909271927633218
0.022608128176047293
0.0025149843429381757
0.3027424153789624
0.3362439916173132
0.07179745549804151
0.0029610043801181485
-0.31010736540568384
-0.4386195675142567
1.3513121340989107
0.019867002671481337
0.31212615411848277
0.5870856481178595
0.4254228662417978
0.3784258393409582
0.3987253870427635
0.7080939042014367
1.185410484834952
0.7159861628650126
0.06568882009638144
-0.36434468864096825
0.557820280666165
-0.16024121406719227
0.6543149234875243
0.41611009823996825
0.15512357715402414
-0.726961802678553
0.0501752008445171
0.2508415692679056
0.03226477522175475
-0.4975462940741867
0.9418212947439399
0.7587117163320718
-0.770744672601753
0.4551234790496802
0.5330634468312261
0.9441651231879731
0.47612998473856494
-0.3202441592575179
0.2975546653004858
-1.1785901840638706
-0.01521990994937994
0.43406283201846896
0.21544754473068506
-0.9796403289745019
-0.9116561397317159
-0.26204620679140345
0.8899975127996211
-0.43534770533029055
0.6602330670294336
5.040907111820703E-4
-0.7732007287292116
0.028429257795389185
0.12814348487046978
1.0805527345160624
-0.7668617894348455
-0.536982340874233
-0.09615655873594442
0.89863333829474
-0.6643328119519863
-1.0982889879545097
-0.3733973986739213
1.0107311421029024
0.5281260171415352
-0.5697766600466839
0.5781949233352597
0.4044157953664187
-0.3130716166706796
-0.9080120178246551
0.37552912408519223
-0.6836235386688528
-0.9803578179556891
-0.6860171167925324
-0.22825422901698178
-0.6399621897653381
0.4323799581871487
0.09052045579783208
-0.5090544967425797
1.3979482949804973
1.2327591586840136
0.12321681239333049
-1.6817835716612997
0.017871654179084318
-0.4099971400472866
-0.35863834884582835
-0.07068617442907754
0.7488383203884224
0.06045167998117662
-0.05494550971402179
0.13124115411803938
0.7155148710581822
-0.6376616338543813
0.251531043234398
0.5730337938526484
-0.4232717494453334
0.2128492304558791
0.5482869327180193
0.14552428995863842
0.6498586592963154
0.46430006369700816
-0.32698836287407207
-0.6115913674289057
0.3347126333172894
0.31339888311084596
-0.5575037714067073
-0.33554118613522765
-0.5806796123275887
0.423669271003271
-0.8939639366309019
0.09147052575420833
0.031170319337675223
-0.8347197276613525
-0.03524693033764059
1.338647892611425
-0.6821281939490267
-0.1537076029492923
-0.13057271370916812
0.794568126765711
0.5681388620748344
-0.9129923076428315
-0.4290909879940419
-0.21870031995919137
0.2790797880512087
0.10130933502628614
0.1927703705247623
0.053126575763974504
-0.4108400384413726
-0.12297182460576139
0.8458634533435259
-0.23205530876977432
-0.4797694605132987
-0.011261221903972607
0.7268137085888404
-0.29849884712553887
1.7098039618578529
0.08947477442654261
0.19058763310256088
-0.31215008442697934
0.13726424823300576
-1.295563337125221
0.03223416057985262
-0.27806142626125485
-0.48402886119050303
0.3567385339743532
0.38664573466913343
0.23037125791285373
0.4550730587169497
0.8309431729679835
-0.36013814122793986
0.5436467538567116
0.164102809240126
-1.0001997134427634
0.45396784396795076
-0.07468625171266385
-0.25945671167571527
0.32627643893737457
-0.03297111363354632
0.9754406379735034
-0.814870438544107
-0.8107337826995364
0.02215226716501928
0.07485272455125891
