-1.7007331713030047
-0.6078265834536998
1.4356697568648866
-0.30748779801377957
2.1289763821479855
1.479627355539015
-1.410181172273278
-0.09714143526960639
0.010307084295256508
-0.3167939744276368
-0.8989504176039199
-0.948060818912425
0.5590887058110008
-0.44018179106587474
0.3307301606743219
0.44082809056902617
-0.5803773033449383
0.42000079013920477
2.7231416284206964
-1.2704195925509834
0.9456372054614715
0.008404037124802533
-2.099043805155304
-0.4743490886219336
-0.09677275991496914
0.8482792673622566
-1.806717391308399
-1.5829722997910691
1.1283970095553726
0.10011011762404742
1.0607325942158226
1.2752099440845948
-1.081959833031347
-0.520367950276535
0.5146229699596998
0.6495024629833583
-0.10174155554158637
2.6754790650513947
1.7221742092862748
-1.8741997382528575
-0.9698655525315545
1.4301446128172102
0.11458891974020669
-0.2579016888598358
-1.013244460483163
-1.1355789313728888
0.014246841542156274
-0.7430627757365009
0.27721776676268417
-1.3581696580183782
-2.100779088384394
-0.8715855131700899
-0.6664013252125015
0.06427752061752834
-0.8648779652701588
-0.3505981886110361
-1.691765037736215
-0.5031943752861032
-0.4124102665225844
-0.45001029826397765
-1.6048117143655838
-1.2196905911888347
-0.11287669308367743
0.6278572158024869
-0.6554161457195501
-0.2048359132139751
0.6462605379139501
-1.4554538643067105
-0.14126778445450106
-2.198437263560877
0.7300949273461013
0.44916826698424583
0.048068252928790134
1.8000554246005298
-2.1344193306708243
0.9088447541389237
-0.7123097111668771
0.49651730948996553
-0.2509101160391729
-0.5948935684714258
0.8612938032718531
0.09973649535985574
0.054039466736277575
0.09825523419160664
-0.684773976842374
-0.9344170360324794
-2.103247320771838
0.8018145786379696
-1.165457600824427
-0.9211567402595613
-3.883310130575291
0.3526164698453096
-1.688036778681074
0.6006890025045521
1.0610830223473535
-0.5246567758729518
-0.2859150326307879
-2.6239006647125533
-0.44452210631784117
-0.5774814648288213
2.8092060788769966
0.06402137643306416
0.5983822246414661
-0.7191655244644252
-0.25658400906845225
0.7492072505365832
-0.9981987018604689
-1.1018923235573885
-0.8285938865394775
0.2851181732635524
1.5860062189580781
0.4799677097400693
0.37116349098089774
-0.3048948771262425
0.2438705550215765
1.0665224251533707
-1.692049487948446
1.3800495540075053
-0.8742108611994653
2.6156722416879186
-2.290177098052407
-0.22751866328663484
0.32853392362848177
0.16136256156198892
0.7848349763505058
0.5711176016424302
1.3434183904685917
0.1313386031475453
1.3022672537521078
-0.31647287094939636
0.9992763590834826
-0.7343480714483209
-1.3088918608344506
-0.5779413840727654
-1.615724602403797
-1.0880816939882916
2.1748476156447625
1.7247762085852685
2.691361570735501
0.09440330045910728
1.5094259882406256
-1.4733527450470896
0.21325689396653424
0.37853234683586023
0.22140777349136043
1.4315463732448852
0.6381540817860107
1.453218577734358
0.03714516142198676
0.6575580253985036
1.2307421916882806
1.2421307646832758
0.1568980402155028
-0.1617708988376907
-0.47910269572411657
-1.1501994366960042
2.027215094978664
-1.2676716007882
-0.42765209896685974
0.6192626962775023
0.9464356717784645
0.3008258042183477
-1.1379833851254206
-0.8931337300454969
-0.188293674022891
-1.9484824848974474
0.9489130132036392
0.0633606317540587
-1.8037268909484658
-0.9311425215541185
-0.41049186895860934
-0.21438140567754904
0.6410709671619035
-0.7616984519179247
-1.8215773957138102
-1.4916681174744384
-0.603829767235258
-0.7108800391253483
0.8815389507296185
-1.750490626372601
-0.5704905840523139
0.7762542654512941
0.3419942360711654
1.2082916856177808
2.3356897260131277
-0.0584537397879179
0.16302462001025153
0.292755286352835
1.4490384608536848
3.614627160634144
1.135500254401352
1.3838541263787016
0.14919989101513398
-0.3001417254095802
0.10399159478543796
