0.5999049135938899
0.35437778643425755
-1.1769200584363255
-0.19024754586415327
-0.5490300192497287
-0.22084182506211114
0.4529835653728628
2.06519362890855
-1.27406682332659
-1.1862808979616881
-0.9179651669040024
0.48242140785550147
0.800797918339998
0.3057658305165314
0.4363095268858369
-0.17711471850499627
0.6174880163835206
-1.954159668424583
0.28208034607552934
0.018627580472719396
-0.9688824852089836
-0.6351225361209155
0.32903354534236795
-0.09057489909066962
1.6278973550658948
0.7940238300956097
-0.5188027626083414
1.107147583235986
1.0921730054806462
-1.0328159371342305
3.076607377656097
-0.4446822482313014
-1.0585839322121686
1.1732495813480068
-0.1793837804826507
-0.8372231615635202
-0.2159942260811526
1.2130895771786725
-0.5720598145556424
-0.2180050340132349
0.18515561720045104
-0.28544413431287075
-0.8491413217447082
1.172639737629181
3.362545880284414
1.2061034500219394
-0.4711489858240254
2.7820115934691336
0.10555708785016149
-0.8760787094790861
-0.6964436579855062
1.0938821747292446
0.04658996003017801
0.5501275932217256
0.9083918544757714
0.3683594482380488
0.28445026919771443
1.3384712678190653
0.5196329754009765
0.5065679441617654
-1.717672076214833
0.8122069925833195
-0.8130707513924661
1.4831118028213617
-0.5346541457745101
1.417646149246624
-0.9833133027020818
-1.4296298586231835
-0.498030112487197
0.03956629610740836
-1.1446661198537413
-0.2513743106454387
0.14450012889246067
-0.12885353901138719
1.786530480297038
1.1488680629032848
-0.03693410885711079
-0.6835843425259192
-1.1023377000507713
0.6947077431202802
0.9362018531471268
-1.9223127285752444
-1.0757901969760337
-1.8206177804304762
-0.7405533409718332
-0.8727869278172354
0.523705006462535
-0.1617754225410608
-0.1470883922238183
-1.1925331059052935
-0.19372942454794506
0.9702697286020072
-0.022850713939724154
-0.4502485410820122
-0.7715377959994253
-0.1116005163911834
-0.47626146081521226
0.5997516369130933
-0.7841921764324297
-0.42643645137999286
-0.14645252239463546
-0.7227643050574647
-0.1313564628955377
-2.012320082436049
1.1862061039728262
2.4536960094190676
-0.37200394515549484
-0.5739607976806925
1.562351834265884
-1.6391409962433285
1.0564536155907103
-0.6520874875423371
-1.4895645387888012
-2.4926410758313287
-1.3534566776560277
-1.7427737656157967
-0.8656665833761147
-1.3619254980680964
0.3335711333984024
0.8836630969237791
2.049736364875411
-1.7891376474076786
0.683046272965774
0.512112788326968
2.1631399953020427
0.8050588447320073
-1.7731298087143366
-1.1078138967198157
0.9160131549082826
-2.0013376361663098
-1.0687641807549655
-0.3605771663991527
0.10727261184448333
-0.9276501418608325
1.5704924343005833
-0.7734003533192064
-0.1612167051182597
1.5043154200011575
-1.8636939484643906
2.1277297165943874
0.8701670480332928
0.15170808557479898
0.9463611713827818
-2.1292936350002205
-0.013799694220957393
-1.0609378819929063
-0.7533565346970535
2.123592754950833
-1.1306371939489148
1.0459704878037641
-2.576641277724303
-0.23729313168886712
0.7013709159598673
-0.7601420768771446
3.519964696102841
-0.10882596069880945
-2.159081375402323
0.28962536824091367
0.06189353447796453
1.1398273532243715
2.323920548990496
-0.8223025058587372
0.9552668608997301
-0.9702009234552621
-1.3436709429706613
-0.78827319655685
2.2410009605516414
0.5563864747720233
1.7605942834687278
1.835278423784593
0.15411832052361085
-0.7913429977930172
1.7504696056643203
-0.15173357417163114
1.878495659201222
0.7341426423037056
-1.703045989117487
0.9188507057244428
3.096470494256374
-1.9118506760363885
-0.5265646425571358
-1.2961731490779944
1.3359966574269346
0.4883521243104295
-1.487135277303892
2.1907278397138907
-1.4164468536285377
-4.50965601601425
-0.11875587502423479
-1.602912715245968
2.0728366573987937
-1.4849802644811259
0.4913367648949083
-0.06550869565140904
-0.005024948474751323
