1.1722143940582255
-0.7287267962095574
-0.809795618360255
-0.03304467307006087
-0.45438984803875304
0.2941368194495756
-0.37279773055933296
0.23291953155405964
0.3382190536851942
0.21229172176030053
0.5202836796333659
-0.3912089624432241
0.014694248314583214
-0.04267023318072738
0.19892351268722086
0.08167960251916595
-0.7407622814422501
0.5293860376582031
0.31926779978104003
0.3363573772262206
0.3534183232904454
0.8476351498246617
0.4935811019319447
0.18585897025003162
-0.6620160663730592
-0.1668203461004295
-0.631535068013539
0.6695371098500249
-0.1844994979571718
0.13186814223536014
0.1080747824946634
0.07563983248150996
-0.4618915078946264
0.315637582881397
-0.21906422496603817
0.43030959995749074
-0.18829944097206652
0.14993714947364956
0.6612429509447393
0.16467222094970158
0.6594653939351163
-0.15561301683263506
0.2805955946610661
-0.23526363866521383
0.38913845310021467
0.5292406646072365
-0.8658351854804734
0.4596089593345313
-1.4203573050864724
0.5625808234285805
0.33030095667361226
0.06831517902133044
0.04352493902786281
0.4581614429714852
0.33712330199948626
0.8940988804164549
-0.25712960760414183
0.8499880463884852
-0.17088833221970345
-0.4597387948242434
0.007721139730023419
-0.5015859610317298
0.47049610379065376
-0.16267665062176673
-0.42722406591238915
0.14766344932723507
-0.2523598530254154
-0.7348079043498313
0.22740572993102182
-0.11917432754950641
0.6977973100996557
0.3526439335710869
-0.1780836834591797
-1.292379796463882
-1.0637186843792468
0.2856333535552068
0.05354499299175375
0.5747218221634673
0.16497917537120388
0.3987417796448507
0.7819856583252061
-0.2361563230470468
-0.4454825606711751
-0.4287807072345361
-0.41280204325490266
0.3605928054655445
0.3949792450233015
-0.30775641568121304
0.7884799701503706
0.17722107634494155
-0.1208252835169622
0.924856654112391
-0.15803046333072868
-0.3340719287238123
0.08736232423663393
0.4284294288331315
-1.1213937174209079
0.5607055329306163
0.3146266325540159
-0.07013014115658556
-0.060862119589541464
0.6840690209097651
-0.4090590858058436
0.330678910732379
-0.20912050833639761
-0.3940915990535353
-0.4503212936874369
-0.04663683442460986
0.24409875943183446
0.027740730330636287
0.08008038071643686
0.15094037670797156
-0.7970731326188262
0.6240439100196165
0.13186929710257478
-0.21784312874842038
-0.699086107206988
-0.09392616531564357
-0.19771893657106432
-0.6791103475568446
-0.42201674797747546
-0.39075836748206927
-0.840303006345005
-0.3931010919604102
-0.3441334503949065
0.14436034080651305
0.3610470656766612
0.16232093754972887
-0.3182704521686439
0.4401286360962129
-0.6268465987768204
-0.5486625862922617
-0.8906354360423544
-0.4039473368950107
0.46669886634209834
0.11633389122835591
-0.13256577472711117
0.42648274874854064
0.4543977844242133
0.0889159708974625
1.027586966488129
0.4493165124568861
0.6376621150205184
0.437324279830276
-0.0716943869807114
-0.45081143609225804
0.3534920934648941
-0.6240758898057785
0.5577867254017994
0.14125338494244222
0.1992008198949312
0.8676624670024071
0.021455414529658268
0.16976812253544105
0.15955500879398765
0.06600686984215054
-0.7172313183676048
0.6596663686683468
-0.403874861181892
0.6532758070101776
-0.20749384269597737
-0.789727851513386
-0.8677434663313254
-0.39790948645347823
0.4782676206412779
-0.06577606697719107
0.36245650309864863
-1.0349239189280723
-0.19784133675808524
-0.12182955256905892
1.2888476369053703
-0.04322479959274461
-0.6827741061100493
0.3337897655808223
0.6202461253609659
0.6607535789462236
-0.12182955127135087
0.5535941099146289
-0.5802363231013643
-0.019736079409415797
-0.4115534448922583
0.1689585425281337
-0.2396893883593939
0.04368653415402668
-0.8009267613978549
0.08924685454716519
0.05295771718772535
0.10775329515796672
-0.27565136255135847
-0.21021849809166993
-0.5159966557419213
-0.3793153035248319
-0.3540485076273039
-0.31728764262458997
-0.13352408778179337
