-0.9671363212883145
0.17501588881949037
-0.6073853788951301
-0.9986637499156787
-0.8170459620974626
0.4767062699275195
-0.6650916960382066
-0.27201222743699227
0.5055440564925946
0.7917103302322015
0.7117553510238044
-0.47402907115721926
0.9733884048315717
-1.1491791487905882
-0.6751829054210098
1.3090731435406766
-1.018431862201397
-0.928992666036213
0.14492589995163374
0.577817908589425
0.9689600407141978
1.0491282486916882
-0.4675717789725501
-0.6366788666808466
-0.49815884332550364
-0.5886614369313313
0.6831774687876391
-0.08723508005895153
0.41511607304260123
0.2578860778763562
0.3465719287557647
-0.09107792965177797
-0.17988016225296366
-0.42877455622425154
-0.5007449642842348
0.7969523713324951
-0.1837343659388161
-0.3080182378851438
-0.16466703848235065
-0.8695002009206201
-0.8848598586281144
-1.2376683814325542
-0.9268264773380066
-0.6120169161933885
0.92619688850279
-0.3807314623296446
-0.7582494249286186
0.9280306021362947
0.9700407188835716
-0.2512444610010617
0.24365460572281195
0.35043130288510493
-0.03749685956592008
-0.27178746395450293
-0.062236228281061345
0.23844754571597715
-0.6518232233530171
0.006345246137374971
-0.7388456566986049
0.7955897046634921
1.0874296224434372
0.2598049432289785
0.12894366446082972
0.36227900665893253
0.21237263783773486
-0.37304469116691175
0.08082546030600135
-1.1388208969221427
-0.08920749473180833
-0.8876508456464899
-0.5004701457435266
-1.2312830109400004
0.3809191313580472
0.6223483978425812
0.572557461931759
0.9480142307965624
-0.6636539315222945
0.03688957995474418
0.1571876553055117
0.36558805359643975
-0.24135188634309368
0.4297912499152482
0.6234719159890934
0.09550780868922804
1.0465176023439635
1.1038840861463626
-0.7282434700415209
-0.45287123141268604
0.27858103401513024
-0.2363337795632009
-0.048044645749723114
0.7583309766372048
-1.5572913102338757
0.5242847180060075
-1.5261951521634947
-0.8034623031247622
0.2888214162936512
-0.7002393282619364
0.27344701480808475
-0.24531646758785874
-0.6307011234540048
0.4671560386842677
0.3097443189896981
0.7183089369448559
-0.6373782694226326
0.4336930426228388
0.4832182838051282
-0.055661114740070405
0.11610266706201311
0.4830909233395876
1.19555665514809
1.9719510673163367
-0.774712295273898
-0.1921894272975765
-0.19438396040032913
-0.039140574469524125
0.3767969701206364
-0.04419202851946402
-0.01723247102909531
0.0935833522299031
0.17519353572786744
-0.7776878338523479
-1.675597593578627
-1.690832141024641
0.6842623040523153
0.1230136445218325
-1.3509381102210651
0.45505523554203664
-0.5193254538445665
-0.219335897717169
-0.6286827840113687
0.6345071071468209
0.8805458647092426
0.3260630334292465
0.37449128157160616
0.3646133720345185
-0.5454900342470796
0.1574149233892299
-0.2607318894077787
1.066144005075767
-0.3199648071583884
0.5728618400649328
0.2891775838009022
0.34251590485248473
0.9854423443248153
0.43908998147529055
0.25993256294458755
0.3488159656607137
-1.2931761195339126
-1.0164310660439577
0.18526264225118572
0.05661746976520088
0.9252410104717916
0.6537315731631685
-0.22587560325878608
-0.4789719024488759
-0.128646730857363
-1.072600576357733
-0.8927763443029415
0.033450663613938114
-0.36690870732559666
-0.29019105130346445
-0.5839117163070012
0.23931284715060264
0.1478493650043441
-1.1824673924236828
-0.5897027112847932
-1.2350304399872432
-0.7878806281705356
0.7659806299540395
0.29363030728513095
0.15129172148558745
-0.7911892676829018
-0.12767920379746922
-0.4082378566310271
-0.7556837146123253
0.048800797734239176
-0.6372101727445354
-1.2214370445212783
0.3644468029045661
0.5885780605092834
-0.5187860902104383
-0.021440923938090828
0.4791859065302998
0.17379576187016754
-1.2265219380352304
-0.6592876239826678
0.04402434216120088
-0.23102888636537866
0.016978284796964616
0.6925185237411706
1.6588629516569164
0.08145790966190569
-0.7710439315951558
-0.15070740114411196
