-0.13371472643039606
-0.28668270160434295
-0.5085501222187174
1.5222123933858152
0.5653086800122487
-0.20811892433941825
0.30621218985534726
-0.149726969656508
-0.9632854506865756
-0.5461889675119391
-1.149877157410069
-1.333360112793696
-0.08084251172851042
-0.6706696210934787
0.10560274015129667
-1.1247880302736388
0.01162767680991772
-0.9453643648495182
-0.3727971777245839
-0.4715675118246405
0.547376175759565
-0.672033866983531
0.249106643320692
-0.47839325506575103
-0.28245889587119166
-0.4764080653997781
0.004997630441206824
-0.17388724132564126
-1.0429992015114422
0.3615898912932759
0.4041392723113524
-0.1394614709612838
-1.1972570764818888
0.7340476051159905
0.25842913958935865
-0.8797791554823954
-0.5526634019854991
0.28667770003583515
0.5335387601819372
-0.4788289877649803
-0.1843737773953985
0.057310422569284314
-1.5279354580158895
-0.6179711257541036
-1.159911705696321
0.8431320183668256
-0.7224551329626376
-0.2800202252715115
0.0738734891902415
-0.03613316466345362
0.4002619606186293
0.48199436308270127
-0.254584300911454
0.1814819597158246
1.3958465941047904
0.10113969760379793
0.218194327407353
-0.42404103617292077
0.11844073133945143
0.5394363104458586
-0.2989158443148243
0.0999298845192732
-1.1446129935667164
-0.4299833197368734
-0.3304569206462289
-2.199505747669093
0.6462252838837528
1.4688098977359911
-0.33087793485323413
1.334939898394002
-0.6973249883177004
0.02256123181044245
-2.4205863783568082
-0.04465652250039365
-0.7644719788263522
0.8178035827575383
0.2771062480428643
0.7822724325166004
0.07654954395236935
-0.9276430093870829
-0.013386278004297036
0.15198426675682208
0.229722303076347
0.7566194427348569
1.004726435717158
1.934312599747816
-1.7552277523502435
0.8692022527045689
0.6609427618749892
-1.0872897494257092
-0.45143617662036806
0.04981135321839236
-0.13859183558876575
-0.8169260734677858
-1.076835050956601
-0.34539243809246734
0.7693434788369331
-0.07108999222558965
-1.4563993568708922
0.42444397406560586
0.9479322981002012
-0.4101714649104311
-1.7451030736559991
1.5183566595830609
-0.7561902971382414
-0.13696581012091869
0.1402246914504679
0.006390738186033529
0.25172424716231045
0.33583537626612614
-0.405495628465789
-0.49425284017360804
0.13654819212348412
1.6454783930752286
0.36115450733515286
0.6675431044311431
1.3095190567215491
-0.6841879083884886
-0.45800793866099687
-0.48081869431558644
0.6730381728464754
-0.22921348956363963
-0.8244300150773698
-1.0800139967281377
-0.16472365429066405
-0.7753365178967123
-0.31600939772216574
0.011455841455087934
-0.929018354124863
-0.34670347452396344
0.3277193052606473
-0.05954840342976642
0.7808898773058566
-0.032436349224104655
-0.09627068555573304
0.9800457859986758
-0.9263599411564806
0.12021542420509623
0.9132423358563087
0.1254212730857347
-0.328565016005924
-0.48454614042784805
-0.7678201267358055
0.8844812898561609
2.45832996001024
-0.795260356206388
0.6111273369393038
1.3010291289689333
0.8949835158966866
-1.0523448064726857
-1.5040046091808585
1.0948504829866574
1.471667629360415
0.3690473758849503
-0.8362335170116368
1.7444141707827647
0.3390145597454721
0.5796204985729538
-0.31931618570701725
0.48079057641843825
-0.10899722908697695
0.9119741595276478
-0.6861348797238777
0.3126548200458157
0.26052779402014536
-0.521305493723573
-0.689625135055458
-0.21189733544650846
-0.6815701710895183
1.1782124651691999
-0.720600801939887
0.9191324840356443
0.5484832641071562
0.014759835859435522
0.7486872265464297
0.20573842948894794
0.15765576176979867
0.11499503103021225
-0.8903901527540645
-0.5501916921925435
-0.06179761191082056
-0.6301203499653584
0.3344143604000148
-0.3811573771370289
0.4971939437874665
-0.05543896826610095
-0.6625422425186969
1.0498944264047116
0.027296304238005442
-0.11563100223872125
-1.478589840725448
-0.5643399397668949
-0.5498270599244429
-0.5539399455200532
0.0844465117807709
