0.6104912169216568
0.8436180268460269
-0.1932467393286239
-0.36098806224566615
-1.2233200839824807
0.0702725417145812
-0.5258484947715528
-0.04398721788487725
-0.27967779795743675
-0.10353030769201987
-0.7299545449218284
1.1784867653045967
0.030344216198741614
0.265269241517184
-1.5779617930197736
0.4905743036268456
-0.9286611886240961
-0.704454426686303
0.18720715408440658
0.049048483224377826
-8.264853108624903E-4
0.9313090125257886
0.48443756976812624
-0.47636352718536745
-0.3492235839762555
1.292044367641724
-1.0908040573767868
0.23614644336377222
-0.11253712200065225
1.961349843672076
-1.4982643581840427
1.2249614629888539
-0.20428322861325154
1.3059386574921827
0.20550198447749612
-1.0640398908099389
0.3309373422634361
-0.04516719986530893
0.22411769351974187
0.135747069151419
0.055078927788786314
0.870017906403258
0.6174790506206009
0.8514363267570921
-0.8377823641066068
-0.46078414237976995
0.7054522300067156
-0.04567998349677349
-0.0925792201956519
-1.018440274903121
0.4698934685373376
0.32911327710541793
1.2881560623362898
0.25662383739009065
0.6693029953227252
0.536872486018324
-0.8360772138949454
-0.21778466423898535
0.7331005826264647
0.6875071319531552
0.47590040623800456
0.7082950643656716
0.6263888452519077
-1.8439534326100882
-0.9847404864525157
1.207460758494757
0.9239467456776433
0.5628268303367334
-0.22325606921152652
-0.2561538759862443
-1.9471786685834733
1.684020590502116
1.0222180623422221
-0.7276039154546949
-0.8541771737021022
1.5402566742083144
0.7370889889985135
1.5974538775314189
0.19220494803619503
-0.7234696146701358
0.954592569453605
-0.14863873635327562
0.6727042957459881
0.6193710715507801
0.4443236064978453
1.3757223003293753
0.6555732725095478
0.18441793279596685
-0.003290952639841249
0.27908394417999627
0.8404658044301923
-0.6331508016443698
0.7430910237027821
-0.8211280854220705
1.0800368994501262
1.2673785031605238
-0.3598432813630946
0.22865116805274044
-1.1500624360156255
0.9477287231535143
1.0710207839400705
0.7317153781037264
1.5291353093169695
-1.5824314147820973
1.1578181541887078
-0.44699751140316846
-0.48421291426235646
0.5868390495807332
-0.5510714247557951
0.12490477923525667
1.1447756970484795
-0.44616696388007215
0.04386993679890516
1.0992455071907017
0.1132166819852638
0.5103194238128173
-0.008222235055130755
-0.3798665594798435
-0.20434524611632698
-0.009883199592608749
2.0727570700505704
-1.1927442112838325
-1.6723714548524513
-1.4180726736259985
1.8546574408317302
-0.19558146302310542
1.3432012318958213
0.42327571209689385
-0.3063451774943403
-0.1791398251440275
-1.336664398027982
0.80900932494986
1.9685046973157805
-0.12105716727810734
-0.3772483778897757
-2.331915325467498
-0.21928071763437917
0.23013949513827336
0.682833256246365
0.47637829015614586
1.3263851049094575
0.15937871327596176
-1.5977546019073312
-0.3086426774227312
0.09845492972095204
0.9231964093731855
0.9853778110685565
-0.5452960813126049
2.3491678737456203
-0.835523110798689
-0.8529094230647783
0.9098394014816988
0.2057226541164171
-0.2015574391184165
-0.013497876264898179
-2.3131576695935636
1.3385552299722123
-0.6794832583874006
-0.5484845268307266
-1.9326596615792004
0.6647311698112537
0.5718205702964791
1.388356137332576
1.5235586221093609
1.482767299840865
0.4632156196233542
-0.15969080828681848
-0.039259918224884505
-0.2861947866096779
-2.564303730278513
0.7406400774459412
0.9200961021218448
-1.2808578592898305
-1.9231496456741284
0.4532444681631307
0.2623521014861969
-0.19443903429025822
-0.33992327418682167
1.7069394903708734
-1.204934921106684
0.83337513595519
-0.5639967243832912
2.1203131052505837
0.2925368355668312
0.05108200549482622
0.06812923967058393
-0.3460327464187424
-0.920636687860147
0.684148295966986
0.7651398669301122
1.5868304152644384
0.7747052894064388
-1.0964105524943228
0.5263489684068883
-0.26218619785200536
