0.1376373557805195
1.7567858453678538
-0.7815636808922982
-0.5782695990279602
0.8497247374606163
-0.6443217762674923
-1.2315291807118558
0.07928746708494716
0.6859786310794052
0.3070825750913404
0.35571051299589107
1.1087403437134526
1.9106461907587282
-0.12427969220912116
-0.6654311077418807
0.19863535679772393
-1.3247891561621463
-1.1175491898752172
2.9119684955221743
0.3139650449112972
0.14347257336420705
-1.5970601760541534
-1.5966467732649545
-1.7887066168445307
1.2213671449853014
-0.9177539428720791
0.05785629200533027
0.05125435248760668
-0.43769099936306777
0.7521950727319631
-1.0788867303377931
1.1614149608794837
0.9656227611885968
1.6066385354088224
-0.4423594839226749
0.6772629018515124
-0.26041707658744806
1.0448210892976
-0.25176453053336667
-0.676088476360926
-0.22201371554893023
-1.6150486485957432
-2.3036410801883775
-0.39515396776029854
0.11904908975003148
0.9654377458809806
-1.9403490830117254
0.14467148117195905
1.2659405582819845
0.3208392287534999
0.35128852614478523
-0.7456349251264525
0.8154987948486898
0.4844874211263207
0.8317883051999266
-1.8490105613593488
0.8293488575774424
-1.4030756221358232
0.3181472928622464
1.051683348719493
0.8399296837779513
2.258190126495868
-0.33218984390931916
0.3511025850458255
-1.946228133488387
-1.1959600899331404
-1.5340223627186282
-0.8035193697632191
0.8890262345476199
-0.9087108047008989
-1.4206054169868492
0.45507263278001087
-1.3452136337916518
1.7767661429879409
1.2247026797812128
-0.9346967857999583
0.11423870085071919
-1.4366424246458886
-0.4219652846157088
1.0670993303348706
0.4418398895473391
1.143124885410931
0.6148964991485051
-1.8734968438605206
3.038207132294207
-0.15647202802233262
-0.15074662663934002
0.7270762232437273
-1.4524182767774874
2.307498041321626
-0.045348192306081114
0.03217022460486907
1.2725286361953132
-1.5851242580779625
-0.42391237381158187
0.65079156010977
-0.48635653974749826
-0.29053830429519
-0.47089824880807185
1.167910430781866
0.09779158312987712
-0.7940350513018325
0.855996451469478
-1.1438072571786786
0.0299564309776732
0.6903249569198471
-2.1148896977263245
-0.017077632294843492
-0.3309997389931544
0.8057894618986003
0.0656018815785725
0.6683416300634111
-1.7046794303061932
-1.8446611462494427
-0.31000246491951433
1.3451260792060848
0.36372200085445705
2.115688907012868
-0.7658015459332773
-0.6198491790872194
0.7965134806662655
1.6944958959538061
0.42866903837090164
-1.0952024960288969
-1.090613718808997
0.4359242364452879
0.822931193125406
-0.5937079649773842
2.0425289223908853
-0.09593291930610015
-1.0342823492773114
-1.292298102623163
0.18987405581835015
1.3762463025702703
-2.5287715530677612
-0.7151752500526348
-0.5577503179739312
0.7380859529144506
-0.09920490660802672
-1.8335108634550425
-1.0652470846228117
1.3176316582820804
-0.9866189405899483
0.36727161677879305
0.32537654760240853
0.06196560405699958
-1.0725812095091873
-0.46353573941453996
-0.7956755962075681
0.18227299496755955
-0.2729046471687405
-0.41886140346635736
0.9148565307429091
-1.6587422025617093
0.049120922917976206
-1.330221024912193
-0.8130336876815216
-0.10822857001801633
-0.6966786426760628
0.5667227660464313
1.727954045957452
-0.3010350074309939
0.0768560195124397
-0.3060905152490583
-0.48022740254665286
1.0615829159123975
-1.2209638896733983
0.7458119965576704
1.5259773565482524
-0.5344779777827434
-0.9529005093816899
-0.5721088932865468
0.1883290467121954
0.5847317299840773
-0.45499785104048174
1.2051960407697373
-1.5078523235955053
1.947672820411241
0.02265033123073401
1.5816492005593852
-1.163372771683393
0.8702426099888987
0.9736884936284314
-0.6727230677201897
0.7194849107752241
1.1672856956715645
0.9748417727861722
1.4427400159081738
-0.8324978027585743
0.012320065869731445
-0.1966310544846287
-0.6067165203432338
0.30456848447141815
0.43144591828055967
0.18780012428590354
