1.5700430890491326
-1.7087914342221207
-1.0680958724930234
-1.0344632797798297
-0.03261434727075618
0.4673416830465177
-1.1951892632127346
0.997399701866774
-2.494128313921233
-0.1764948643339178
0.7941440470129768
0.7107112828115785
-1.1379130831462185
1.7976222820424703
1.3959108461749627
-0.21769308543030919
0.9568934442403954
-1.0518211947787957
0.851479300531099
-0.42768581796159544
-0.015669735825408204
2.124695795399738
1.5639387298378788
-0.3454029869620555
-0.12729270868626097
-2.047907764646361
-0.879656832329262
-0.0424096118445928
1.0162487161684814
-0.583727275715301
0.9517507303764541
-0.18964757925538778
1.1820776869961722
-0.4707583116576829
-1.4498838753580765
1.7601993273261574
0.712611161221576
-0.3541587652597429
0.9287988326590595
0.9762874019902421
-0.4212071265226931
-0.4559666545532144
1.0035870505350961
-0.9100751481869709
0.7299923052354076
0.2224465987209242
-0.1600331674706864
-0.5115481942603508
-2.50061833733516
-0.2189264441165505
0.1737717147742901
0.5477188878874861
0.554781230284509
0.5586439364943883
-0.007922276813772333
-0.2967464747744847
0.042400395596085105
0.5453291651470329
0.09820528023260477
0.9737504859488886
-1.2384715585883632
0.9344891429760194
0.7868244779736187
-0.02538036862484372
0.12263851668640835
0.31425108810743796
1.5460954690864401
1.6552995883741741
0.8850467573863487
-0.20279922789109484
-0.47458928861109895
0.45672738554500203
0.3264567772521457
0.6498416117806523
1.1075913600589815
1.0615699292335274
0.07455482667461788
-0.7311370389812323
-0.40615048385104624
1.6755844752717999
0.6615997945019765
1.855296875845685
0.3400975642149644
-0.0053213746204548995
-0.8234571822591302
-0.9585873521556684
0.543448357776185
1.1060917007885884
0.24053729602753093
1.0506211843230098
-0.4555135641284914
0.706094020589799
-0.8541686704903865
-1.6586626980921282
0.24013751238172887
1.4694192950486673
-0.7798398170183419
0.2799264633398101
0.33407599753113193
-1.251194315333108
1.8992968804205574
1.8140364317777498
0.3656416596227252
0.5129266839131936
-1.0952819001701393
-0.22415805319946025
1.1863363664310622E-4
1.848910461663924
1.6257317324301321
-0.1409826642775227
0.7672682559656387
-0.13725049460620176
-0.9771514816044643
0.9658762663615656
-0.9945299392113226
-0.05214984302210213
-0.522000783773718
-0.4931254914088046
-0.0552324437179752
-0.35862433911339264
1.9354950662332326
0.30880016494794227
1.1698191460664336
-0.7302729362593374
1.478763655344692
-0.5286365240875295
0.04584003973713069
-0.5492735638162198
0.27229859238631016
0.23102164393109959
0.9945927672518025
-0.575872122921569
-0.11138085369731066
0.042509323866645965
0.8607527617928026
0.16785327943145045
-0.09555320151675006
-1.1016784676666997
0.40583581922627043
0.34023056479057934
0.032367700051412096
-1.2573290336825074
-0.014343394992809455
-1.3415226487510075
0.14648568500440795
0.7170405199897132
0.67169940856071
0.23454801857118912
-1.6777182823674157
0.31640084189229156
-0.009783493314299507
-0.3009844724650259
2.381896371459854
0.080339081253894
-0.9713374579763121
0.9363980530496798
1.2348292708393929
-0.30897365642973196
0.15787742196104737
-0.7584720545641898
1.8689752751375313
-0.5142346749128721
-0.17105886732580777
0.217444673811925
0.27210094842232646
0.2663508446828048
0.08808132850532613
-0.06087643308991264
0.6791310725434361
-0.398160128138629
0.003828602443690765
-2.021640329403624
0.6048940430258292
-1.2327573640458815
-0.08543690159181538
-0.36610719327446795
0.5862543353468372
1.6080451864968137
-1.540784979757207
-0.08487586559397486
1.129594037953519
0.7023175263086241
0.49012065793775805
-0.5717066728347352
-1.3412567784383214
2.4592083129139146
-0.04064380987071314
1.4090223604708898
-0.25095746790202744
0.5402220914151514
-0.22105168792644903
-0.3549353716479635
0.33936745203700913
-0.31743612627422146
0.015452057392417284
