-0.9433802003548174
0.0053817362555506065
0.7572779678010315
0.4711016450011085
0.9130851515486458
0.9477828755003423
1.9082508630062258
0.03217876027706934
-0.3397681008871971
-0.509129421467497
-0.6629130694707682
-1.3534680024403976
0.6845640059375868
-1.0404922822770868
0.739214630988914
-0.8731313480845186
1.7038176970828798
-1.4748341411978614
-1.9112937422168867
1.7709408425671835
-0.6014133607433658
0.08436279517023448
0.5148952662279949
-1.4388087835761412
0.41212551754758886
-0.032941768975411234
0.8915352576413327
-1.1819785933589284
0.9693828255365675
-0.12881343650269206
0.1449427163460253
1.9609398718034567
0.5942145990334438
-0.008402491971722825
-0.5810778560445723
-0.2801379507572579
0.9364978173771425
-0.6095097059560423
-2.3859627533674104
-0.08794892280975697
0.26414558784702324
0.11965583568776283
0.640330285681983
0.29520704296539224
-1.5267415178759292
-0.6349714113643351
-1.7578938407755784
1.080162762550879
-0.02976150503308672
0.006916974097050388
-0.7394923004665046
-0.5926819344216089
-2.1808646908972458
0.8131229323814331
-1.4407166160870677
0.3576994148288317
1.5002772996818923
0.21932983242859083
0.4960941562723302
0.3504528674070516
-0.5908320235752521
-0.09035684796921606
-0.4005269930941904
0.16194689284870156
0.16814373466898724
-0.2895100434908434
1.0099520241564526
1.7213027406883668
0.02647615561975669
0.06733382916008679
-0.32845162534964234
-0.24867427627619798
-1.091280685871733
0.8549925405516654
-0.9865928769672833
-0.18732924441114018
0.7264789674194809
1.5495721516853957
1.4850073500377543
0.0800178945853206
1.2902057270517138
0.7492844582834577
-0.09635991963795099
-0.12755680882926246
0.038910609638476146
-0.4489900664297274
-0.8021152149759657
0.762382107640315
-0.22244175036647396
0.04551426082539656
-0.13781358571406743
0.4621467882301161
-1.3548634270229565
0.46212334113577846
-0.03512632704986607
-0.7261711185605798
-1.6830622589332194
1.2486465830067002
-0.0735789732026656
-0.9813879095559505
2.2207711468112397
-2.2550679631934267
0.19796399948585985
-0.7545323684051741
-0.9393547585133312
-0.1901373599750964
-0.49632317664535275
-0.16304913302288515
0.49640988928484087
0.7110267633277816
0.6751996745023023
2.5235464109293493
1.0111404160388275
1.6680104982303297
-0.007689700525622456
0.6079662474886982
-0.40585305767227586
-0.3302666250564382
1.1692274076950502
1.0048446279042516
-0.808403571038751
-0.10482571544705122
-0.990084330444234
-0.6097700007368025
0.012607197150737326
-0.9319269396993305
0.4681334337440436
0.4129146770720039
1.3940128956355757
0.5882305291612515
-1.2852098346538248
0.29832755156009394
0.8587945144315863
0.21348351722650505
-0.5364513795773098
0.08429586269047729
-0.6764757985303873
-0.3128122378178799
-0.5558506519602685
-0.06389645937759247
-0.21556655412134962
-0.17156616631893962
-0.8885884320725368
-0.8362131729356769
0.9035097331790785
2.0276869906240513
0.6545643686257043
1.4675029640366273
-0.2935793220174533
0.012232152778406391
-0.602408581856086
0.31986319780237304
2.5970469869886297
0.1063212872986955
0.48285229659228435
0.1450468747411754
-0.48158847606203925
0.019845355339837667
1.167317356206926
-1.030796531522757
1.7177683326966315
1.0307445258187102
0.05845166670087443
-2.1816201382952536
-1.6338226558656674
-0.31493535268022765
1.584953175488451
0.5928447823532537
0.28895763004924124
0.10629583941744036
1.4719488356897141
-0.33001370877924563
2.1130834443317736
0.024916405835241018
0.2821935561053589
-0.17271097669906477
0.06913555302137986
-0.03575041385972144
0.6592951978805159
1.095433994517502
1.1189589446850778
-0.6339490275966312
0.26629582742159774
-1.4674993661937594
0.5240650458506666
1.2286279668789706
0.38359575962327264
0.6961414009124718
-0.02911751539094487
1.4106718501941096
-0.22680110755057403
0.4155186181527857
-1.4492990022183923
-0.24335107752893048
0.07898590977724895
