-1.2675361323182939
1.6388079511361324
-0.0039529069671871975
-0.22436870931232966
-0.4416077270751614
1.2501579877773394
-0.5150352353158975
0.01909721609074755
0.5022119509739609
-0.657478711854581
0.5844821561849816
1.466339897963962
0.48040628554817555
0.1298463561253156
-0.09257820660556582
0.04514154504753165
0.2914630709765835
0.942907551636301
-0.92060641895853
0.7827039887483405
1.2006371600250558
0.03759286644165094
-0.7198619345789546
1.0845557846701737
-0.23602652401089352
1.842981514773851
0.5600050649004413
-0.5561042142466224
-0.08850840955807404
0.10946563685123423
1.7766956960730553
-0.29779121613615145
-1.3681576867173786
0.7096736024383528
-0.8490074490833385
-0.2477649379564324
1.324409435129727
-0.71444579938056
0.7807160030062286
-0.3473711456544458
-1.043555790077682
0.4093501682289661
-0.7920947319260381
0.2526755673908019
1.175876793993484
-0.34031770633354264
1.623528356148463
0.2249906948632161
1.7819859450376585
-1.1679280307398583
1.3428716741768247
-0.48453849632907675
0.3864138499871439
1.3487083873543395
0.4188416638770306
-0.4500487741224577
1.3246859611880635
1.26284493808544
-0.6748676988450234
0.015490964401948082
-1.0032765807511161
0.24610221357233897
-1.444399825656565
1.2615176606268195
-0.09060548138050895
0.5782326598600931
1.8954744694883114
-0.551567671486385
-0.6064025455560045
-1.2002163951097367
0.9454073959282288
-0.2476513877519516
-0.05759006094476182
-0.00712509942670303
1.162863773112254
0.46791334690111896
-0.4737050028290195
-0.4842562424323118
0.9535752577666723
-0.3075517179199565
0.29823353441909417
1.00969523750063
-1.128103212687604
-0.1712313079295763
0.5124815610991229
1.132696178508649
1.779987754853059
-0.6655795215627425
-1.281040497505915
-0.9738204086276102
0.5690208442056135
-2.0701820862383977
1.3585228537036174
-1.1489470839109472
-0.1342793943239463
-0.3474911327322797
-0.007594049186693486
-2.2316674519332547
1.0726363741423761
0.5697481755891487
0.34017757663892323
0.3886645552148401
0.3908244345665799
-1.544302591177674
0.09848692234367995
0.9605283508236919
-0.6639898381496666
-0.5091603765132667
0.42046178551334223
1.3400536086689239
-1.0838584965126747
-1.3000596497177785
0.2314017637076088
1.194024802951569
0.2139919001530921
1.4362154451415083
-0.06473062320319634
0.12594813700818663
0.14050735868922704
1.1746608704926063
-1.1295981079094155
-1.1861386913597027
0.21300097492195202
0.6411824045246837
-0.9773455293139238
-0.10631887045537014
-0.11723865280047385
0.05818492679862619
1.3034529236247816
0.8473688769563514
1.1004922827241286
-0.008389793523101874
-0.5468142010614464
-0.33085261867064875
1.643344044651582
-1.8397346974744433
-0.15704826058655197
0.4436876644993578
0.484843174062046
0.5856919480436278
-0.7692155426311239
1.2072667815621716
-0.599901207847574
0.6683554563964298
-0.5746038506898079
0.5259853881544119
0.5854094232227838
0.5542090196047553
-1.028330654192859
0.8924044320884352
2.1102055669764983
1.6912594217145567
0.4337688097180272
-0.7115596721589754
1.2104382695370712
0.8107485054165551
1.0848027264113977
-0.9860605528198175
-1.1902303520940714
2.6059097073471635
1.3081964511124842
0.14080240293022184
-1.510405320139077
-0.8325380791331948
-0.6254620968102932
-0.8685229086566347
-0.3830900810633149
0.11296855549702456
0.7321162333165514
0.5192023588724619
-0.6201921341314101
-0.05826735053055565
0.22281708332021155
0.2643440161452534
-0.6746803710667112
-1.3679925072198207
1.2536122807264674
-0.3016054231459988
-1.9526691542632846
-0.07225930888141807
1.3761551431639083
-2.127861073257968
1.0662270570682633
-0.8050641845216362
-0.24419645197245898
0.3646794810865984
-1.5314516036262957
0.8548657836313773
-1.0587729825153582
-0.6119468486571441
-0.7923978536263793
-2.053281336781787
0.7660716661271709
-0.2951641319127545
-0.08951641666277632
