-1.345214644825404
0.08235991806596943
0.3066186559738525
-0.7117942323672617
-2.1221208162937923
-0.1214643481653821
1.3016695876613589
-0.06840889413779194
0.6602552264755803
1.3028958041571197
0.4601410237069846
1.5169013891797043
-1.7774429430282037
-1.010096040512611
-0.9214980976099288
-0.22147978529527812
0.9637580060032538
1.5528396380166996
0.7828276930678069
0.1901751260766319
-0.45303790919292963
-0.20914871771315569
-1.8913005751843652
-0.2961196598257313
-0.9142289225115703
-0.455643103887599
-0.8277432038957786
-0.5354706692737834
-1.3521250075386841
0.9583697285192057
-0.7736988822790936
-0.4743989205863328
-1.0247198977603291
0.36076173003844414
-0.7181764719528769
-1.0545586195798062
-0.27483535806867554
-0.33850470950527456
0.6626532486937093
-0.6882191088437477
-0.5706000302372125
1.901758350640577
-0.48154128202378854
-1.141966085902459
-1.3640038345647651
-0.019682248115968526
0.9404785987612421
0.6657768337238492
1.4139517320263808
1.0277249406102187
2.638660724236926
-0.6716504084323551
1.2759800336547764
0.04760360430442978
-0.5864563013523966
-1.2232552175156908
0.5759661389289263
-0.3217945615612474
0.05633285041371816
-0.05096780573052462
-0.7469639581756601
0.4048320848226816
1.3941776423348458
-0.5474168399369485
-0.6608578424631425
-0.07064022716089235
-0.643286286635716
0.5917515638110418
0.08869952462387098
-2.039682914332277
-0.805791441853444
-0.33538530019375634
-0.7493120440247203
-0.3917166368871422
0.8530237292105738
0.43847175569537145
1.3639842713636616
-1.1334669651965625
0.15683515213381827
0.3729785008445242
1.0735701872346404
0.18589143640017858
-0.05782885220507583
-0.8370650983232835
1.2853413637298825
-0.8025565673356886
0.3228023893598637
0.3415917565535864
0.439474476743683
-0.8356967234700852
-1.2563014756478605
1.5451442953614607
-0.18171520564068622
-0.384652166623071
0.9684418695452159
-1.042802317389389
1.5084142860958645
-0.7142387206296317
0.8226750972858583
0.12951023103224235
-0.5000162871425773
-0.8041574835313264
-0.13442263108164854
0.4223776913200943
-1.0836088966081494
-0.29931884304710443
0.09278036310308224
0.625729145508461
-0.2543091152460518
0.174153931503914
0.4142738190181129
-1.9031671861748667
-0.12753867550881348
-0.892406402469485
-1.0053492523222196
-0.7165262957221342
0.325779729035115
-0.30991192056664707
0.2136062526002498
-1.181874681435081
-0.2927110411564613
1.2624614617303798
0.07868702962252283
-0.11623800225009928
-0.47411210961684225
1.8604190587353706
-1.236601437528283
0.7218052863874511
-0.9021690519070266
-0.441657496646779
-0.0929461733688135
-2.209542363797948
-0.41183570881304854
0.5387724452606748
0.30144865975767754
-0.9477590276490565
-0.6897091335664126
-0.7697948619625329
0.9373361117779822
-0.8073587874662886
-1.4636668139017597
1.1360507570835725
1.1666654837913084
-1.4786445439695948
-0.7191629461872983
-1.7205371389407662
0.049736297358249804
-0.2360209882104195
1.1316854038192612
0.8881863904575589
-0.5533237028137904
-1.9284077857371595
-0.9071058323308802
-2.0194777489780025
-1.1644454266272337
0.6547258697013127
0.026622000397674594
1.4992493653910797
-0.3258064917636413
0.29924610953267516
1.3758740210237124
-0.7375512207229147
-0.6013977211089572
-0.9775614797204257
-0.5400630381982086
0.6628948100992633
1.079140016628784
-1.5821916499620716
-0.5101982650931772
-0.9575771851727348
-0.4454197516027828
0.2320077395561677
-0.6336280513692982
-1.214663064541675
1.0329136156835188
0.8608123138163801
1.3601703981296238
-0.32754325124949335
1.0028575393980228
-0.6119159633044372
0.4874294184360881
0.8157671621355536
-0.5549015619184298
-0.498236200890398
1.028713638002146
-0.16115741435835995
-0.7291243659991016
-0.5517482244889549
2.15297590795461
-0.6480911849719151
0.34577534400505516
-1.3543650519599446
-0.8695873852398446
-0.38955822251715166
0.4564634296473393
