0.23887311798226907
0.8458918318605138
0.07984010731263302
-0.13766790047772937
-0.7020170700223513
0.24679581834711273
0.3208298066658263
0.5745881391478811
0.1542006797308234
0.42465477421086817
-1.0358987153437669
-0.36024531429454476
0.5493758080812765
-0.17059963236527775
0.10552009140476004
-0.9958903131052723
-0.2794933011221695
-1.0981512129477409
0.4962642850613984
-0.17878655384932085
-0.2263393974847311
0.4426622887751822
0.13468350881982005
-0.3255377786451005
0.6255758539572507
0.4272063060897492
0.9530177734757372
1.5563451600331852
-0.48848580918225504
-0.29422177290093743
0.15092968787923833
0.8579921311547845
-1.0824189485546456
0.3912483187669886
-0.2843230824462808
0.027251492716025005
0.36366877586366675
0.48355294376594715
0.4380397604108843
-0.6577909236016692
1.0859294018627899
-0.7244037670081993
-0.9348518704540908
0.4657588810798692
-0.19706420832902016
0.3280296416912518
1.0824352214025277
-0.06727423875355143
1.07108669632628
0.2387415576181231
-0.030212555733382884
0.9143663561408961
-0.8693574782179511
0.1722877869085495
-0.5458604380435489
0.13437888541967313
-0.7347859493970799
-0.8129895173656401
-0.783794305965844
0.3478730053594553
1.111614202841111
-0.7573380374911952
-0.7772456447778637
1.8251211769578628
-0.5824659152535482
-0.7321665339559478
0.08475662584993571
-0.008926696043755289
0.9029268293572961
-0.7762469821303863
0.3930352656670557
1.2502214316208704
0.005443172413508557
0.35631465427358266
0.7086253044210729
-0.23247608209306025
-0.4094255954323348
-0.30960862205287054
0.30019671385529845
-0.8218007990423998
0.08930166265519257
0.5645416370675473
-0.6672534342438033
-0.3199224709153261
0.39258358207461475
-0.02596796713138494
1.2621444573494256
-0.44325751541091507
0.12779288021962332
-0.6840414651176929
-0.17159466122811362
-1.189172864504707
0.2934236846320949
0.98359422121271
-0.12210185950979102
-0.546756809688469
0.32307908777964034
-0.12524753938590416
-0.45438672406523384
1.5648549665413172
0.8325460240628253
0.4314842134447864
-0.28159683647330147
-0.43253899223979564
0.8073929053562019
-0.6427330870264154
-0.6504127762572188
-0.8420508319041653
0.528325553667722
0.18330304513444795
-0.4825672123338709
1.7341397943243608
-0.2250444560994147
-0.4451929232266878
-0.48807954958396393
0.060689967009083357
-0.26438848488729383
0.14531038932634655
-2.0222883923682593
-0.3532799395553474
0.42777921138120967
0.821419382623878
1.243907361697076
0.8482575043097653
0.5109185692371689
-1.3601707318227878
-0.403679888818413
0.11708650086775418
0.23873943655645213
0.13763611515303897
0.15779268338854413
0.1091818014898176
0.21744826129339379
0.2035455366958473
0.9824254660251843
0.09078838396979816
-0.48915771365703753
-0.6439022947523767
1.0612657278346846
-0.16024278235180855
-1.3954615869294575
-0.6850498992636758
0.6832046414560333
0.6307356228531882
-0.4819842545176576
-0.577604226520818
-0.455720667922911
1.0030060286040392
0.06590885702319571
0.20662567964044543
0.9880757875347825
0.15084479067780998
-0.5220219903902338
-1.0737793921698093
0.6649757676559034
0.2834941108852006
0.7225822205935262
-1.1860910907655122
1.0129934692061524
0.04906886300352542
0.41178515183990394
0.008598918445821835
0.011713770803089552
-0.31858495950800425
-0.8489547797948004
0.8285587358545325
-0.5831420612808604
-9.76528026000012E-4
-0.48855950394887127
-0.05028068140736597
-0.37748949052877945
-0.8518262133405892
0.22638585523181787
-1.3320387138742404
0.8788711066231203
-0.23652088103647484
-0.7967106959579967
0.23986442773775996
0.2020821485002431
0.16602151186928704
-1.1135512872402593
0.5769238365329861
0.7201721284568472
0.7417087578438637
0.7357884323776276
0.45060084411578816
-0.8404661384321351
0.21676014197221027
-0.5280274206596145
-0.6122249621770313
-0.474506770333354
0.21294972877370777
-0.08319882491150554
-0.06392658088911474
0.12725964480218943
