0.44539796942009136
-0.6362387508378409
-0.8330444667998117
0.3385642175942053
0.4110600042427742
-0.4531233978600332
0.07865575745489817
-0.5788650258186516
1.0272768777939212
0.8654765728733125
0.654473333522406
0.08302632763745499
-0.10670603161507619
-0.56984814040008
0.6212884872661748
-0.041662205876663805
0.7866795725873423
0.9340759221484594
-0.39941152737636854
0.026938026964487105
0.6982488136554521
0.32889966018064254
-0.4256575303152319
-0.7585126859016912
1.1060030365750815
0.5661425530856725
-0.3564669001876919
0.8592401512203611
-0.6753183237577685
1.6885417216173941
-0.20425002033796602
0.23258831695295523
0.5075354681635682
-0.055465190811566645
-0.010564140246564824
-0.305439299049857
-0.0971534505047259
-0.4046836162662477
-0.2846116577258244
-0.06474865666844043
-0.4057493576370056
0.0014466143877414073
-0.03481256652129461
-0.5104054826173576
0.4830558897982221
0.4849301301174862
0.01539485556610165
-0.07332829116483552
-0.31591522405792205
-1.0005974306373902
-0.16991246931763826
-0.00579886832238008
0.8152132515573687
0.2440376217257072
-0.17420936217176675
1.2646057761258458
0.07735735554691903
0.38890849916664827
-0.05676430541053601
-1.2228193903364828
0.041865787113613995
-0.17715271205876515
-0.4495344861353344
0.016402523727934715
0.3276569880495388
0.980314243799244
0.600725714766265
-0.40662209188510323
1.2457083343734228
0.3066769051778604
-0.8363602343212794
-0.38704177074921964
-0.8633779696894502
0.43405177023174646
-0.9448363138433195
-0.045484072334818104
0.2692614589409238
-0.7820257285854983
-0.2627473983970585
-0.28637328140598906
0.9306233522123764
-0.13031892540003653
-1.048445814129536
-0.8608817104012056
-0.6330788259002966
-0.36412938190729593
-0.23815602103649602
0.9942559318965836
-0.1923784432736193
1.5590337287403195
-1.3925363359191194
1.312075631197021
0.1215688697950138
0.5684596532766637
0.26965041077439744
0.6293924520633389
0.8178360894809826
0.7046264780101965
-0.440126250129393
1.6930016149302434
-0.10913697071678208
-0.3529030103381491
-0.42926201426308963
0.4767854047804958
0.4690161417984845
0.5722600811192395
1.9773820370795194
-0.09471721498483054
0.4331254075160419
0.06096501120967168
-0.4139325327583995
0.2954016165051643
0.42759547917803464
-1.188809276781905
0.3840937481410094
0.02696702562384168
-0.8427889413722319
-0.4633450498311392
-0.36963650389852964
0.48789316377210723
0.487257663128395
-0.1202162596121753
0.5736583364658032
-0.3497927905629086
0.15173853754221955
0.5158430920845882
0.035976681697803214
0.7436479861686913
-0.2567849431153173
-1.4440215370282226
-0.6545361257354938
-0.6826681858912171
0.501079685114524
1.2383879903461472
-0.8560549115885371
-0.17504877200232372
0.5569515907068827
0.2506464947090786
0.3859269420314083
-1.4085263996363857
1.0085274788080447
0.5942196929870827
-0.5564594025599761
-0.25356025636955914
0.3735714397916745
0.398581401022959
-0.703626341505183
0.5430449994524844
0.7618986260939002
0.41625822342651186
-0.2503529190693443
-0.8375996355337278
1.299836807992391
-0.408505664826873
0.35971615876697305
-0.613967057725459
1.859271728188331
-0.6144431299573799
-0.30558845949753566
-1.0404426892846352
-0.1604185040983127
-0.7619999360947071
-0.11634082329441353
-0.03843175587389869
0.6009444453346751
-0.42841981529830586
0.5588606760903283
0.058304931154515516
-0.27845176975703734
0.748203946546842
0.07928227522070352
-0.21217212403699892
0.40146644842182455
0.29710268957245034
-0.7750613554528113
-0.7950249407713402
-0.027127183943436828
-1.3283581280731465
0.29110241708284135
0.21050876095025928
-0.4697396361255002
-0.051911037912461544
0.004747306440359922
-0.28494044832016163
-0.11131383522489702
-0.8255294376592699
-0.3277675698281458
0.49673213998319266
-0.566866773362417
0.39976713459903923
0.8332896790785049
-0.5237497191516186
0.4638849434487573
0.30107000026127795
0.10182808770412921
