0.14185689662214884
-0.4646219128688627
-0.4159119710311
0.12697692273715733
0.1364774355880718
0.030631119860015543
-0.2692112302636239
0.21032190537612772
-0.036145649381048583
0.18678916544146829
0.24293351763323812
0.4798893168875653
0.2799646319947914
0.26669984322953944
0.49718457741704813
0.2959011466743302
0.4565968593040146
0.38050577486920445
0.4814877658692024
0.09037581163717034
0.24784950776962855
0.16750397046840837
-0.17803711746571227
-0.2618313185948574
-0.6045495469365547
-0.14612356678066618
0.4735362773602776
0.2763595877059315
0.44106049682374215
-0.38387303921193217
-0.3611901323465492
0.7940737246897236
-0.18379390338982227
-0.32327542411265686
0.5712456780855137
-0.200434270457429
0.1866429890579655
0.16257673752275992
0.4626265652644316
0.40389725713904845
0.5434746232186334
0.30913934225774164
0.15441956269587298
-0.14165177531637485
0.49806506678078477
-0.482638505946299
-0.4817799519118725
0.4189618437563055
-0.10421572687106573
0.6927380801835774
0.4590576200132461
-0.18569174676389566
0.3863191838099034
0.2921077861476048
-0.10534201804342502
0.20650156884534165
0.7986687108164858
0.03640297666781045
-0.45549378406011776
-0.308767348232057
0.23925112066667564
-0.3207258536748828
-0.45048469270213154
0.26043010185511295
-0.46997792638947145
0.16034794322985357
0.29937598549481437
-0.4513280246485192
0.1604716257762694
-0.33825405015217114
-0.02120842231081821
0.3654293480266515
-0.06937780868121801
0.23124108295904788
0.12349936976215503
0.04279886029565094
-0.25783475377417675
0.20538898550763007
0.6781258828217225
-0.19183108849353836
0.33258227028682963
0.2645630200233302
-0.375134538925736
-0.029635701635020273
-0.3399897254515226
-0.23918259176799384
0.8054319028444108
0.07195875848661004
0.07487720252806096
-0.4621543403512094
0.32775311641966864
0.019687540930881875
0.21997101350924297
0.11940764560038675
-0.0281701489616365
-0.4430653596933999
-0.42003734098409795
0.37437905155492435
-0.20163289239661297
0.4204508399237137
0.3006488492417658
0.610545831979965
0.35725407419819133
-0.733874890493671
-0.10571959869458958
0.04442512798348208
-0.39770245508743485
0.027356147769477146
0.8549643863593344
0.36067495528514104
0.8367381330624692
0.7442501616403776
0.20536376683035773
0.34009345782948375
-0.4461704727775445
-0.2594695362647266
-0.2526225889896171
0.16259364329425507
0.6379914612047339
0.09622986289515323
-0.4165208329508502
-0.20482887352242218
-0.4844299650963362
-0.25766352647375623
-0.23545443110344888
-0.4608432603076559
-0.039405113679137904
0.005840398618915388
-0.14866457350689133
-0.8797719957223509
-0.47030087314721336
-0.14926823957122115
-0.17343011624984583
-0.030599201929511155
0.5797592286884954
0.7378711285177815
0.12982494866451944
0.16592252608791835
-0.5438080693422345
0.37550470047851514
0.04755071118418275
-0.1137629695276704
-0.4134854988292641
-0.08836808278142916
-0.42306585152578213
-0.6734985388865736
-0.21702742590093638
0.12342334003397448
0.46930269485153686
-0.2983857191087055
-0.057663724933362914
-0.27304228849094647
0.22983001941443115
-0.15365537694694043
0.14250407552808564
0.03790669958810533
0.6006923724297732
-0.2060084485119119
-0.10928555039957166
0.3497272883703386
0.7126813060886774
0.11598791155273536
0.2541895906806455
-0.3983707252286529
-0.029155979623782136
-0.33466037743870125
0.0030043948897262585
-0.4887789302115655
0.49657572555448526
-0.43119093638760886
0.2904676768646819
0.19017978959157622
0.047337103799533264
0.0010680604827062457
0.06766999781322003
1.0240128471857055
-0.17273571299399526
-0.49340982198913075
-0.4104750764518982
0.16756252115339831
0.5629162566870733
0.4043036141968275
0.12064493829472778
-0.3550353392746247
0.08891305727072374
-0.027194789093685334
-0.4632944465986454
0.005494282606399281
0.730008693382193
-0.8610313422173173
0.15143028935837544
0.5513714843036885
-0.2285756507077482
0.02018340429292953
-0.11377711254607459
