0.5585871904925392
-3.0951128428598436
1.867743762707867
-1.4181784396822994
-0.07433610549606429
-1.3177775408423922
-0.26086545814589435
1.2705324100242121
-2.100376306469236
-0.8407040914668175
1.3899308724463433
-0.42129293318316174
-2.0812607447545095
0.8478443480743556
-0.4800519689780064
1.1392588505943808
-2.5560532286715807
1.8525353265792202
1.6899731519652117
-0.49693347580450387
0.9598466587110406
-0.9273447739929617
1.2576689137042687
-1.040200022781768
-2.9818060625903273
1.7252619002520508
-1.5394721336412678
0.9276795484169438
-0.6951587817552635
-0.6940824365336441
1.3671264117237034
-0.9510062451362754
0.6698727673825677
0.08902878104012069
-0.8700193641076623
0.3444014512129018
0.2646846969810869
-0.5284161689101693
1.271715251150901
-1.7646395008403488
2.591690893571725
2.1823594292488795
-0.5347092019737388
1.2296510881054528
-0.0030371012379251106
0.5478681611140073
-0.9349167125187321
0.6485079180482138
0.8142737046231023
-0.48104754171247777
0.25280980029384736
0.23479791913999837
-0.917606545027203
-3.082332298870087
0.1326483086527387
1.9338826039696064
2.680080725091303
1.409729748301134
1.1487497508507885
-0.6881557695502231
0.26509005705452915
4.165118662721065
1.1364450898507399
0.4841054425410346
0.06075270592665072
-0.408954541922933
-0.920818402610125
-0.0024496686933916934
0.1277176336073096
1.0655995217001728
2.7507449743592733
-3.388460849341567
0.1803794926482133
0.45435824935043234
-0.551049549327437
0.2671421589185209
-1.7651860218520348
0.6462161381008955
-1.5274561172605425
-1.9532436786712446
-1.4653799205002969
0.15122883767510442
-2.7694052608271758
0.17277333552066632
1.532875284985542
-1.8611662934227304
-1.1888982119177107
-0.6224336310453349
0.5491004848314072
-0.12009110784839583
0.16946361119069442
0.6389729507376689
0.11946008182412704
-1.0255623803388763
0.790599976463433
-1.1929175163640315
0.22716374581749021
-4.055750153385652
-1.6130150641580219
0.4000104637873635
3.2311789447876014
-0.23199570397490843
0.47642137457571276
1.4298608334441654
1.156863664358318
-0.8965267874256468
-1.0166526455947769
3.0857109338713204
0.08711683381954816
0.9661390921692541
0.22720326026105397
0.8407839344627515
-1.4327979067764227
0.6783347208400685
-0.746390307487921
1.5141600339142585
-2.486041271971642
0.43866128147124606
1.3326731238577953
-0.3725490760261265
0.6460834783585376
-1.08576928671212
0.10224989833104658
-2.3832236742893147
-2.064217285899577
-2.032266826991601
-1.0589456652568368
-2.9831344615901774
-4.196831134661856
3.8718455195847685
-0.4247857744847032
-0.21400348710900974
-2.4753392406280446
2.4708745296599846
1.4727751188650147
-0.4281273772391019
-0.15510676828752512
-1.3065719469631736
0.7992804939936509
0.3396873934924085
1.2099588254849059
1.1139945299488643
0.46134560955107506
-0.31637864376377367
-2.8212284309151006
-1.409181909597577
-0.9280555842214118
-1.0275256311763248
0.4986057452688484
-0.20678867976644388
-1.6442201619716283
3.022749566049436
-2.923861587604141
-0.8018772521590908
0.8174032668139906
2.7248193222901946
4.031920381947216
-1.1277501839400366
-1.0236702604707013
0.8308660379858779
0.2661395567146114
-0.5622241465935535
1.8541168983147847
-0.4474526150607002
-0.8947288184306926
0.5512792609996717
-1.476169082959799
1.037931147472301
0.8329821794846599
2.4916426173537305
-0.07232517704865149
-0.24969460508776786
-2.9570807757470683
1.3822131677051206
1.2475449109097672
1.3113473292288562
-3.8735864149369688
-0.276540510735923
0.6398470121927478
1.0786398142790459
0.6297485832619405
-0.2971152399661178
-2.3973576783449357
-0.9299796578900694
-2.0372714606774496
-0.3161602321707534
-3.0663332220178736
3.2091001884916777
-0.16384640627339286
0.7742829168883856
1.51312063073525
-0.2143193751960224
1.9054347303360686
-0.14688518915102233
1.2287039860240365
