-0.38135292666206666
0.32760005040068063
-1.3786817786755625
-0.3460511229821064
-0.41475568539084606
0.11263556619403581
0.2806555588725591
-0.7348139994624606
-0.07418554975457636
-1.852818442710539
-0.13333668706714386
0.3900700361532976
-0.3666658743902622
0.5763920953207045
-0.43483728357793905
-0.27873462291237816
-0.12695024207938943
0.20283776011333465
0.21531577144360858
0.4097022609808604
-0.1716719848039593
-0.13000497064115824
0.29266462199878274
0.17727631332629545
0.12074531765474406
0.21506206983505383
-0.5288325624179127
-0.569507848646225
-0.548411633083303
0.08731160961669604
-1.6951576614953543
-0.7835745059683543
0.9942438052683567
-1.0252551620253934
-1.202188792154634
0.8863181536542957
0.039061843404020746
0.5644698469952298
-0.4112340363919025
-0.8404182763011645
-0.4351285397578196
-0.5155375260639217
-0.9033014250698489
-0.2637473123246913
-0.05199521744124147
-0.13409932642602962
-0.10882026521038446
0.4555078930507934
0.5509567266159126
0.35042329639089964
-0.09719982408554839
0.7812536634745235
-0.25488612517665465
-0.11328663445238707
-0.737734509947304
-0.15192896063619332
-0.7850080016254021
-0.3798404680090425
-0.8479888871381789
0.8721022669618259
0.7718718710085923
0.020057854725736957
-0.6080742326250667
-0.21681932117737757
0.49964581837359623
-0.8235271171777859
-1.3772471148645786
-0.825802611328196
-0.4293212721003753
-0.07674406289649549
0.06019981986048584
-0.22109165544067888
0.3594969461365216
0.5907258996554479
-0.2907566442156495
0.43943076712137474
0.7675375698581877
0.20212970348089243
0.07470434813706839
0.38601165711540364
-0.30790871291608146
-0.26986316763492846
0.39113947408380734
1.2559974738721102
-1.0484997572598689
-0.33363370000990467
-0.018776402364775735
0.37228455914927694
1.2101064842161116
0.5395354072409879
0.1838416680116175
-0.24328726839273196
-0.05298535123465842
0.45484292252412384
0.713478195856244
-1.8399363832242641
0.026641923299275727
-0.16811821999647947
0.17381561063815387
-0.8153520609834143
0.8781301439019484
0.23883453384979392
0.738524004985508
0.25968647980253434
-0.25632595863115726
0.4187073954643685
-1.6616531207949146
0.6995800497546947
-0.7277707414853111
-0.5067766616604199
-0.24602772155149488
-0.14190887736108804
-0.06897039708514874
-0.44159902866284917
-0.3251824822257543
-0.5862297659140894
-0.6735424160038201
0.7046255473460583
0.02122178147537468
0.31184615270051474
0.003557206747567321
-0.08405079221010914
-0.08817075565885502
-1.1035202890029958
0.27236201321824693
-0.11530872629488453
-0.10182892518148068
-0.09321054286167874
0.7293343240361847
0.41972287747022075
-0.3662496766822323
-0.07200874380661038
-0.8275733516448086
0.3742799574262644
-1.1271967923746102
1.205665225745652
-0.27853242176147186
-0.8798089748195704
0.8936143420953584
-0.4167893271193619
-0.7993239454115704
-1.4035474466840088
-0.46746064410829824
1.3090881536002197
0.39145699262983125
0.4048671530516619
-1.5943367785093625
-0.0435512713280124
0.4433672432823288
-0.03102207925548872
0.3914404886571643
0.32271460658737705
-0.37261817751571635
0.2366165899486269
-0.4250616481152636
-0.053432772111674076
0.3000702830241866
-0.4728475225303935
-0.027958648898190108
-0.07012564347559436
0.1066032849005758
-0.47885454699450036
-0.30579027599172925
-0.05795886980454579
0.28169797073892056
0.1791275721283514
-0.4607547955064103
-0.3900304691814859
-0.18166838546836916
0.3011632059175453
-0.3432506311694967
-0.09793528254785588
0.28232659736103816
0.33305720294734953
-0.46993832671504243
-0.06940354699623352
-0.45702152565295995
0.42790817701715433
0.453540678440033
-0.15628931311725358
0.42134491330627943
0.07346254760395088
-0.1313776482512624
0.35826917433005345
0.4858525008657496
0.6995269886663358
-0.707141246481817
0.5890369072962902
-0.4466342237325197
-0.3724013842363022
-0.16638271317021758
-0.02355051130105912
0.125322489246247
1.0967487458812362
0.0538793917877175
