0.6549037589782043
0.2160223537783943
0.26981282482964153
-0.5289278961266735
1.0295742578956797
-0.08877003108448434
-0.10051210961306178
1.3093118097364984
-0.40079271803961447
1.1632466457831825
-0.528661240419355
-0.7729272914228565
0.3059238942517809
-1.0183288409009417
-0.34626291845515966
0.3802069610006573
0.4364356968497134
0.5532080898077323
-0.049700465694915597
0.3039356216477531
-0.23206418091522962
-0.0725660967663263
-0.2765887970224029
-0.4732405297502249
-0.2561590657345061
0.5957845440423188
0.8600226363066596
0.528696266437271
1.3381362147992066
0.5643348289644439
0.4185218597105609
0.3401155671877367
-0.47490269698913634
0.30931809763554563
-0.13168273709495604
-0.5528452255223599
0.989724945157104
0.6036186129771486
-0.2935843109779165
-0.893493477668486
-0.7257084403955294
-0.5197889624548105
-0.22153329637592722
-0.09679426901907451
-0.04409135426468436
-0.2307528146138197
-1.472097359658822
-0.7231860414418735
-0.017852567588520385
0.3174294607429422
-0.428738840448164
0.5515039434973388
-0.18454039290864532
-0.9306425976881829
0.025912917808814884
-0.0980740807936169
-1.02432290423468
-0.2098248451534186
0.32403131500332705
0.536316333805309
0.08740292725861021
0.06332845641954032
0.5276229553952585
0.41221594516258453
0.3753054740738757
-0.9301108157312771
-0.5185268494483485
-1.548547580784171
0.6904119255918406
0.940807906550787
1.0771362549040397
-0.07682462445593563
-0.8350197080361903
-0.143197484090402
-0.29526960100656974
-0.31720822029695395
1.6677676351347586
0.7663932180059327
0.28833113166697777
0.557819878541902
-0.5288537600810036
-0.07790395218369961
-0.6069620873003493
0.058832591208533125
-1.0319324530052087
0.11016943501904475
0.07745464401380664
0.13775633578358149
0.3616335413480576
0.3460005843334705
-0.11386383746291806
-0.394120249013738
-0.48583415915164474
0.8988664586825761
0.4218760443723357
0.49104388078290984
-0.5984523034688508
-0.22001677233091788
-0.2553432889873356
0.2883305139237906
0.13065904128681793
-0.3531625174282649
-0.4353514024640234
0.6917859799937358
0.7247747678854948
0.5335510194739181
-1.2925160735118881
0.9301564317429185
0.6898946894765334
-0.0883695576727681
0.6690489001633355
0.1862499572354297
-0.5008990036959658
-0.5870799997182498
-0.43014120961863933
-0.0195001961800515
-1.107447976487792
0.3592387752793461
0.8208039571676997
-0.6584361973038801
-0.23556922977331773
0.6061604926371453
0.7553811281420812
-0.6227331980231319
-0.46968833827353185
-0.984783883317401
-0.34896413493322276
-0.29627629631968955
0.27347910408318665
0.37279534771497513
0.4148493805635304
-0.022092040120027412
-0.152687136024807
0.0941794674109383
0.1413365308694685
0.5434271529135399
0.05729959467747159
-1.0862066862295694
0.3646949030514258
-0.9803281623743929
-0.9993182028227726
-0.3337402077274513
-0.746345274080984
0.0526626895353296
-0.18591476571526533
0.09400365448072778
0.05038134218562795
-0.14102556074835815
-0.43290814013427337
-0.3505190861030075
-0.28774370312236575
-0.3184506631791393
-0.463736164048971
0.39965806472328036
0.35724496785065907
0.30267425977641427
0.06949239462295576
0.185047410592051
-0.09067403122681772
-0.3822431029106179
-0.44665609250688787
-0.042104003740017104
-0.4982233420505999
0.3753314708859371
-0.06353562239825106
0.4701012195982851
0.36534315889465807
0.1543913399959166
0.3390685686478402
0.49919715328671677
-0.4805267804983847
0.4373816564712062
0.016018156601327105
0.3891804055763928
-0.48954836923294287
-0.3212281838156763
-0.4601475274302673
-0.23502966451640883
-0.11444408987090238
-0.13283702062185976
0.25470572750270826
0.15918192689718003
-0.019955355028003274
-0.21310635964534774
-0.7132291874826467
0.6808610037064866
-0.8777596876736432
0.77973669943962
0.14376992421959345
-0.29049898679171826
-0.31386491898145574
0.4848109299317884
-0.0892434478845151
1.0356676104399578
0.014488678085487261
