0.7332020218692623
-0.22395181134012287
-0.8696628028821125
-0.2804868759978706
-0.7527197037964143
-0.8809175140476928
0.16086372847560626
0.3009195899065764
-0.23250025479556258
-0.7214112313576585
0.20485198182944842
0.15275972012440553
0.16175052421397973
-0.2919600050275927
-0.09969400038067378
-0.523201349802769
-0.38420983020525845
-0.2385134648248909
0.3609684363659217
-0.6606603508196984
0.0692293838213307
-0.21798624608791461
0.21294428516730812
-0.543354659237297
0.7542253879564047
0.05456434287195522
-0.5165815526541458
0.42210616328134043
-0.45744954457700826
-1.0439432339137673
-0.24395254896537844
0.005854301846051402
1.1382291363603225
-0.36674530467946476
-0.01571412889111068
-0.5136678554939146
0.0024565287222747534
0.145162273152597
0.10857597239867878
0.3972396936963878
1.0110561509015623
0.617255380183686
0.32892186592784656
-1.1807851351049612
0.45615923741794184
-0.4721085769073601
0.5989697947669947
0.4166438378132542
-1.1822104780184859
0.39578308752651037
-0.28608365384739287
0.8486143855967132
0.3084448431393658
1.1895709085725135
0.1312983972247831
-0.05237546482127353
0.3888086057469502
0.0980592343123875
-0.29947963357859686
0.3504674771414781
-1.1992452001862839
0.24235909763620378
0.6165024778049728
0.037402702976062074
0.5697665380741257
-0.25908964955857816
0.4132163630858461
1.0757279092990597
0.09226089182711128
-1.199396002302172
-0.49278892433129196
-0.41986423678132234
-0.5328842035374308
0.6386515991778268
0.2539215740594538
0.38895723225297685
0.20244791735498768
0.5804730894016141
0.4873562212950403
0.09497298437676538
-0.5599180862992797
0.42209529473725693
-0.44383923713182427
-0.008596855725324093
-1.0134042566745172
-0.5937987833003756
-0.5378845078846227
0.6311589719978845
-0.044572319800950555
-0.14599994795955162
-0.45110827614486937
-0.4175356791708972
-0.13532933233379285
0.25553131794153694
0.7393704686428964
0.017488705411988104
-1.1834638629738685
0.06746171876798046
0.653656534906512
1.0978960196102578
2.1170347016622175
0.3086729900162415
-1.0938808811184937
0.7154730142425307
1.2637197459849376
1.4959313310602669
-0.06374208124951142
1.5121115422574545
-0.6415095249920151
-0.1250873946455764
0.4317521423979668
0.22800326579255936
-0.2554611596590701
-1.1650782268393158
0.35551336461463034
0.2007462623435925
-0.437008534668086
-0.18085174889116107
-0.20373691188015586
-0.26043481551845094
-0.6997512320303596
0.7488548667036867
0.532744297200386
-0.61562874228308
0.3346387880309891
-0.17901155457060003
-0.33097151882570885
0.413122937875373
-0.03560130479255208
-0.2125676287092617
0.7949347011940957
-0.6985288721785572
-0.2510780970197246
0.07752291602012162
-0.019250443997030242
0.40072790921604395
0.38115604862840147
-0.14036794500059668
-0.13352510728910905
-1.9589801193841296
-0.03699625667888706
-0.8225297606046936
-0.5487549792544874
0.27706038359753393
0.4386476455644429
0.029648513969501744
1.7737140657486337
-0.8676655657587
-0.27589516804485037
0.270081281698316
-0.04605298700980642
-0.36505647182361034
-0.4213781993080056
-0.2782471811892341
0.20879299935007678
-0.2101189993044842
-0.46499115930569046
0.12535128388580907
0.09868309061474922
0.39099772971214675
0.44972533165017414
-0.13449038620526477
0.40074828365608883
0.028940203702820577
0.32815538757066254
-0.4469821933223972
0.4894131502689262
0.3922799221485972
-0.2466784451184325
-0.015642283179944205
0.4341220707172183
0.14548471062038482
-0.3830438526932497
-0.11556182762768274
0.32576905166354586
0.3017145190665306
-0.4423760378126912
-0.05901639144146387
-0.13994037719710728
0.3200863075632341
0.1092226187456311
-0.0045249304953882685
0.13279187177768537
-0.033376784416752736
1.7624360619259356
-0.9120500406837511
-0.8340929296681519
1.5370280565781012
0.135662268848042
0.16421300282382523
-0.42443464883786197
0.41665436199811945
0.10963244748922463
0.7920496822165302
0.02118275556692828
