-0.16890137268667704
0.18194994045562207
-0.9081929283623373
-0.4405846306884095
-0.27490307674087466
-0.3941897255362826
0.4562577714733317
0.06486875439772288
-0.006443005469589647
0.06393425121753893
0.4535564754914956
0.40109277018700207
-0.09998909679946921
0.11818039902439326
-0.4450179406021615
0.22669672811674713
-0.18338273291041074
0.18320027354886936
0.8414101127155107
-0.04250084413446187
-0.8444282922056525
-0.40768785348117864
0.13906408891991562
0.33871922742757066
0.2802840796048658
-0.4021246698881149
-0.7436651187580836
0.5066044613099396
-0.15357880329704932
-0.1994803448097302
-1.0097291488871059
-0.13825328655183033
1.06184838611393
0.02846636013538395
-0.35267041724311077
0.38040734688289035
-1.178300009144346
-0.14888607268280596
0.10038974448503202
0.803637977171384
0.2959698297708815
0.36205570016571975
0.2950266399162661
0.2623050812080725
-0.45507151109552835
0.391974905523934
1.2432769292884371
-0.6230943503841259
-0.19325827718833144
0.2954179216348729
-0.15071854185994316
-0.2854517738475729
-0.3034755802192193
0.6981913281993615
-0.20219270051908245
0.002097158335374716
-0.28258687923509884
-0.8008375192308007
-1.1205208780083318
-0.5912860816778646
0.5533534787697274
-0.6134898263827259
-0.061547224431615866
-0.4318948735325704
0.18011524889270403
0.28981245553342594
0.814812350010695
0.13388495557556357
0.5975546946376089
-0.07081846029654326
0.7135477908166235
-0.09710464142533204
0.17052644341553358
-0.8703201712647805
0.06019178497447675
0.8612262364956211
0.2636527714724104
0.5939046240189989
0.23230512891292254
0.016355587445629816
-0.4061154546348752
0.17497762988809618
-0.0010258755522447593
0.863092123341884
0.2202520931407762
-0.6356146553584306
0.8756962474594072
0.007601305557006444
0.8042072260692998
0.9328924357873651
0.08509046246325735
-0.4480867431459009
0.9364804910031905
0.43341058848683345
0.5449990926791006
0.41771432326371094
0.3419884543868066
-0.46680895793573995
-0.15099371310300025
0.6073090300036617
0.21698493797600837
1.0782634653261758
1.7882364571943943
1.320627288858409
0.11104207284764223
-0.2465633892835456
-1.1886026573636046
0.6083846056226805
-1.1534644383647321
0.017994627300991772
0.19230809797588355
-0.3207572701380993
0.506146861109628
0.47188463326585517
-0.1164886366483755
0.5199736217039739
0.3659943650517967
-0.21896685144056727
0.5921733619541105
-0.4218750514664903
0.6396643950701806
-0.36554860305694825
-0.2190834009415198
-0.10938656309345762
0.15711671493042267
-0.02157033141552278
0.5601927272186766
-0.3230611214723065
0.3816910500256572
-0.1476533296453444
0.8537236312124812
0.13504228761757553
0.20441983594601199
0.07823142279146877
-0.21294707652756817
-0.039799031774297666
-0.13608259015172064
1.4452105329092406
-0.7315702905123707
0.4216401899508798
0.5472247048923484
0.39092345512012916
1.0854362200405532
-0.7151155407581203
-0.6716792347643304
0.012937725390322452
0.29908737375697303
0.6512121593114888
-0.45294728319533106
0.36143522908829884
0.2990185557535904
-0.192131730428876
-0.4407703928454506
-0.2593124552656858
0.3077082982562892
0.4780010244224695
0.4461040992530383
-0.23014905799463437
0.22514143165830658
-0.03954704720938407
0.0470350663420841
0.15765337335378027
-0.026214158023319167
-0.20770703833265336
0.30436273378244916
0.478137704851194
-0.36771158512589763
0.366199174438244
0.4196460944310221
0.48049811575245394
-0.41329024454496344
-0.09136352982443452
0.13408838210973506
0.36106403018620037
-0.19458663703084433
-0.003081948457019368
0.13525706430209394
-0.3908432669319587
0.48434369521222376
0.16291122713823314
0.37052380653039607
0.26217614124582167
0.29087335386761914
-0.3170947328512117
0.8144946125778887
-0.6485891238162125
-0.4128438718405455
-0.5330229107556087
-0.04185012547131994
-0.17382258299908726
0.18737292313370102
0.47896611876447637
0.03559722464441728
1.1168584693685082
0.07518848093267316
