-0.46056056131458
0.12643616116894063
-1.6502975970103968
-0.3732120179845261
-0.1740501183918718
-0.7647645120889391
0.5613916576442961
0.07476706356096186
-0.05544672624211078
-0.6845849627816875
0.20487904973157178
0.8403870813651189
0.015704916514791223
-0.3445960866090587
-0.21389486078578657
-0.05043872052879561
-0.12080764069689198
-0.09905318430688503
0.010609930288407399
-0.8696679234394876
0.4790197567924094
-0.10429497856249714
1.5118178365796635
0.6433307761661058
0.8781196147779324
-0.5866797277884568
-0.06371382303641215
-0.5295370254597654
-0.20328801281320508
-1.3951614771560799
-1.4193189726943656
0.00859149258425651
1.1028239873363153
-0.252967034509735
-2.260356363440103
1.7091097810436877
-0.7939722533682455
-0.01599479662606995
0.3851236378069147
0.6424894199596105
0.4142022165946909
0.016908703268144643
-0.11116966946144569
-0.4472512755074284
0.14098108463108938
0.1758445294100064
0.8496423103655446
-0.39719757755623075
-0.1642429016808178
0.1803056649094803
-0.19739337863484485
0.5349053625967402
0.8160268708335632
0.240404947887925
-0.5907231130350463
0.5216373239253731
0.6449013985677239
0.20704257389064729
0.25665817714365013
-0.13917839359337436
0.023833987226468456
-0.21054985049922503
-0.27585699981611533
1.1880506702787157
-0.04922991661371534
0.8056698912402431
0.45027702901485345
0.34691238757234033
0.5350064645665653
-1.0872142481240616
0.46777390125583773
0.0035224525014270203
0.009171672687465438
0.13552522961137403
-0.31116514532792394
0.025387155435469877
0.6795540646696228
0.396371585784584
0.3694855671111793
0.4529579038003744
-0.3920018914321053
0.018029246976540625
-0.6225387783494668
0.23613500715068392
-0.8604170182692455
-1.619791913356707
0.5931913047179482
-0.048881450104217516
-0.16472026988063448
-0.6231506999397826
0.2902698600947633
-0.15407499540580538
-0.9866123625795445
-0.10934238271255936
1.1145006529046184
0.6072896418014087
-0.44236762037081523
-0.1168045128701034
-0.2735393959585113
-0.48302916354405767
0.3342812069781873
-1.3047111215763074
-0.0916717280966245
1.380582702479471
0.7760635422454873
0.7899479091527342
-1.024800569555909
0.6010989170007832
-0.40178081628779105
0.10320359721344097
-0.30887230554681433
0.7381482814028044
0.04193970166239136
-0.6577620129794891
-0.16421591229724686
-0.20551193328489858
-1.2631128728102954
0.31589034145012107
-0.4747433494520671
0.6156002877435185
-0.9927839640549176
0.10803813356469616
-0.5827861228943845
-0.23617459297112997
-0.19257803569389187
-0.16359395527351273
-0.2859177559161743
0.16852848536732679
-0.995471444851311
1.2658913517237558
0.10521152425203018
-0.18823073896821219
0.05602845471112938
-0.3138119823347221
0.043189360675905175
0.2553507812463297
-0.28909779035339067
-0.19365558680795403
-0.012925860115201027
-0.4808461901479786
-0.2909460294996239
-1.1373594900953499
-0.7207317498996089
-0.21589597803321858
0.8230774635244069
0.9872318567029859
0.21612096013880466
0.262227577170865
0.27203485457966237
-0.4689868790834566
0.4977285725833013
-0.26883587024373423
0.10196335148684776
-0.3054803846192098
-0.18722191297346513
-0.3308799620953703
-0.4616325599545079
0.48766713159037023
-0.19454258271960256
0.13339185407332554
-0.23640617517725881
-0.3174036587827871
-0.0043081436795031625
-0.34844087304058
0.42407244011200584
0.03460425966456826
0.1381870635664827
0.3608050879846305
0.35175222144225393
-0.15422617237735903
-0.2673526657915303
-0.3228339895930322
-0.4486274184703457
-0.019090761051886784
-0.07106566744890264
0.4808835252270045
-0.3983276268653527
0.027091726478183586
0.18083427180762457
0.3436469742690387
-0.30616630251723276
-0.31632158650949327
0.030422350661639896
-0.2028538875728687
-0.6226726929176984
1.1151087204963401
0.8196449856553589
-0.8480794266945162
0.0662534640903969
0.45661678190054333
-0.37393445970396855
-0.37584270736716485
-0.013920202169688256
-0.9103966511762612
0.008799923431535461
