-0.14984896598689124
0.11101995518950936
-0.028422122070207556
0.002919223461500642
0.4438009302692818
-0.9172469199432929
0.8540805489539662
-0.33225502520700245
0.5100232054710192
-1.2430794386294717
0.5081594886229277
1.5185453633116173
0.3561274207185855
0.0019877839562033595
0.11411915969626507
-0.6872222684903069
-0.05004322107387993
-0.07712211570587058
-0.6478132312415001
-0.16404226727393723
0.6773197048049948
-1.4057144323465836
0.07567145537545883
-0.5220195989556728
0.8989353113368372
1.4646387417050883
0.6446919009775611
-0.22423560364738837
-1.2879187317739644
-1.575873246906847
-0.6635085235242499
0.49008473335916636
-0.2431527616136856
-0.7111490669463073
0.6100937111275728
0.25251632069151353
-1.0010327149831146
0.17860724237851344
0.45317930082724023
1.2366032928509194
0.3184007724741368
0.7022737939586017
-0.13146484503604128
0.011494715458562843
0.32172783392185456
-0.5748562781903712
0.9067596704193448
-0.39653629487923103
-0.23365595114269677
0.38349801657806915
-0.004860574643799187
0.4603384900981816
0.17487146963240097
0.0961333737380966
-0.6373973876867055
-0.1568390143901015
0.4923869384127155
0.058792860623826715
0.0541714933046763
-0.6160357702406906
-0.7256562064069683
0.07513404316826444
0.2522817049253122
1.4067870272823162
-0.5244143081073599
0.5769680726413808
1.1709943448427993
0.6282183822349263
0.9592966250198045
-1.1890426691866363
0.23906466265207138
-0.28563704234694043
0.10135255344634775
0.7814560595660529
0.19420824670653514
-0.02720890362848727
-0.667948047613514
-0.24119507674518437
-0.21127496766669585
-0.13706787844312784
0.3550509347694082
0.15048276893393653
-0.25388576723481115
-0.20346102000479616
0.5943171805158949
0.5834570186116639
-0.15390660124365507
0.14146046301394732
-0.036253845607846946
0.06079358397326107
-0.2853311775488935
0.010916585309916904
0.3770966227887821
0.02992957191281287
-0.6166974854169053
0.030436643451896006
-0.0563940306184858
0.05951050907546651
0.4792780789955955
-0.45773302058281673
-0.20675162109858036
0.271306772996215
0.18079261476273156
-0.29409202675299395
-0.786851522744812
-0.5607563870905046
1.2409398070734323
-0.15138902393246945
-0.5607307524641804
0.21279333095302788
-1.0450674706883425
-0.5701016092190799
0.1794693328912369
0.5286982112459235
0.7369307200471449
0.04763750620770757
1.384633393233254
-0.19822044052557997
-0.4944057821389094
0.567043506569572
1.3109319494944134
0.11643157988969766
0.9287615198638102
0.10520709961124675
0.6347336741054832
-0.06732223233655776
0.24875824311977557
0.013457180507179478
0.9357179126552595
-0.9403432360155949
0.213503299311119
-0.18191500347610268
0.11720704257743852
0.2055202461672726
-0.2082033355008669
-0.5667132722328257
-0.5261918822081829
0.24935414134264156
1.1084224590160554
0.05874302151922306
-0.6444100580718465
1.0261242325363342
-0.7142512433714119
0.08466631994335327
-0.5515927159128801
-0.5027918830779704
-0.23018177155583697
1.0864505167378637
-0.39659609242243143
0.029825292853847496
0.3987113940685876
-0.04845023235129009
-0.20289335696253918
-0.3607794720644466
-0.33523010928682406
-0.40789916019695305
0.21572729547699598
-0.3189489326910201
0.187071367388562
0.18709914976122322
-0.37289268056262215
0.0064486679415172166
-0.2912789776242961
0.2896450197649916
-0.457003281413649
0.46525672572621435
0.19374834312760392
-0.08288834317439553
0.38548705442342013
0.387492800343858
0.36187432707848133
-0.3565006260130026
0.048476403200743756
-0.17509836351593677
-0.13466469800719838
-0.22773059390596484
-0.06267341977800778
0.17506638864632518
-0.017572592289801348
-0.42996534154726085
0.19194344655014017
-0.37207256928531374
0.02763157477797129
0.18699203054900515
0.21577220784338802
-0.40180855865952314
0.41309539792963934
-0.2750656116874154
0.4426564205630684
-0.06300338626284319
-0.09382930804059153
0.1061293275141102
-0.13663451259152382
1.5407741327521753
-0.19349566562546838
