0.05124408066203623
0.20528983345619323
0.7801994708438391
0.5192735545925871
-0.057549157845088406
0.23997894849726642
-0.46884364575618276
0.1277104447640296
-0.05289400289706814
0.4310662020698305
-0.3077415772445371
0.20450258353445128
0.4740894230447653
-0.08562461981120362
0.3891099602615735
0.30674875934617474
-0.20415065252840758
-0.209764810074336
0.0497805670148489
0.3620795144257566
0.2904769482261864
0.01530853624962858
-0.7270970837046105
-0.1121081249609247
0.1188168293158065
-0.08754861633289246
0.6432587690351081
-0.45234675612513753
-0.18449037526370426
0.8862544151255451
0.5795531348273759
0.26579830866767495
-0.3045553432937278
0.015877529605788143
-0.01922561849432458
-0.5592911805750357
0.15855409177943314
-0.2476217247154735
-0.4053255306147857
-0.1223762329936744
0.11726858841783849
-0.5020020094553415
-0.6184714439686604
-0.5777767482409343
1.6129661441661143
-0.69380250957744
-0.3904244099326373
1.7661375468226561
0.8237021831727231
0.5379265740956769
-0.14245237486121565
-0.37660457287767835
0.0435047120976606
0.31624524240321394
0.05977437295218346
-0.147978604220807
0.1544572038370755
1.2814079638821227
-0.33670437698707023
-0.3267616788697123
-0.3689325235704207
0.4919280883084257
-0.49059587488427325
-0.1786043049282312
0.8536181365494664
-0.5329787140245086
-1.2873184351947609
0.020083976339506426
-0.39253352567885014
2.089077107486508
1.1240091005710746
0.7128220087182449
0.21384993100548366
-0.5850997322751136
0.5797972117815373
0.36126235313607546
-0.5900025256367765
-0.05867427643109124
-0.8694300191407482
-0.7712605816145218
0.2906878852006335
0.2594823482343622
0.061112496369237435
-0.309233294155561
0.12332579719511838
0.05333138977284546
0.05381293024386091
-0.1187059165395079
1.1339157909892044
-0.11819676610084384
-0.7444543236972098
0.25064443691712446
-0.025372422571583897
-0.6535213267958839
-0.6039138665614194
-0.5429454211198784
0.4533610649179045
0.4100447501286042
0.3659441929464824
0.28498319743828104
0.2690241329096831
-0.2059082449320131
-1.7412761633918636
-0.43568321684796707
-0.24401373418799654
-0.5828996022034432
0.341312342188584
-1.0524778310842167
-1.0263980840455615
-0.418938173472738
0.04864099285481882
1.0889500740948215
-0.13927911832003292
-0.24736594780530496
0.028184237215158614
-0.8253132300724892
-0.1927286524037003
-0.3299291258808953
-0.4957157714170559
0.03821058438381619
-0.7816799697351875
-0.06452928692959015
0.8226418085073592
0.48939560130962656
-0.12217624841741892
0.13025257231924026
-0.1237987175229247
-0.5986800635197853
-0.7618794700193762
0.9133864963265634
0.2445746916069822
-0.938454457735139
0.05664913078105294
-0.7185427342420723
0.581545907115983
0.6311645047820367
0.6352246329532771
-0.14210169424193508
-0.7599878772640584
-0.22992840156887795
0.2696548846424591
-0.9819071410105321
0.42990913662784846
0.783745231389303
0.28905507169759503
0.16734358795590654
-0.7936215607798364
-0.13649080134518898
-0.30986899706621485
-0.2630011858253761
-0.23469666166165626
0.12940076398577827
0.26640773995312184
0.3878745317406561
-0.4323028966787156
-0.26107078291605046
-0.3638346618723157
-0.3288369244704913
0.3603975444952928
-0.4310668719664843
0.3250077319457729
0.30602074176481286
0.19300780515992233
-0.05590933780671048
0.08161413507972037
0.4117477531533914
0.44964740790903923
-0.4518371466677734
0.28044713059118254
0.16201261524388522
0.29486394348099965
0.21642702992259066
-0.3057073523911442
0.041460485081904364
0.4718751962651452
-0.3118859293070759
-0.32293226131970054
0.4660878223954572
-0.46101280870370676
0.09829895150244172
-0.010285093599822437
0.2289623636952085
-0.34945762000267044
-0.35798554188621445
-0.8768908818230712
0.4015816538775585
0.44469810696513334
0.5954558427826258
-0.1847557874268343
-0.16430054145458672
0.19983198142980252
0.30474229405763886
-0.14565843596057115
1.1715084672134553
0.16117653548646527
