0.10280542704153184
0.4240696599125894
0.6841133595265303
6.548278427128684E-4
0.043761051384344274
0.45130266531900776
0.032744481463319874
0.726243956430328
0.007610153742452441
0.392621730134616
-0.43943090607945623
-0.16542367354552667
0.5575731147052014
0.014128258024379003
0.5003445003282807
0.01760148927604488
0.01401531738539663
-0.14790897819514548
0.7012390242958586
0.20678154764986456
-0.3146068378777829
0.7719706420278456
0.26376082586859806
0.34584264175656454
0.42824793186640053
0.01120667895223626
0.49431234941195845
0.6621568386353038
0.7021454608748852
0.8116516154854199
1.1049554682354756
0.8641392412831794
-1.0252862533220486
0.5909636388825716
-0.9328437927037915
-0.10282841220591488
1.1339807148146333
-0.012737405754266629
-0.563169827408916
-0.9023662836483369
-0.1686616901357727
-0.6455490069987319
-0.07993850478322717
-0.6395454820760654
-0.020063475980054868
0.5665605288347129
-0.531924082372532
0.09489598480049044
-0.33460434911263537
0.016928756817638613
0.17011982233512657
-0.3686748682303028
-0.4435574850891145
-0.40909199874552715
-0.15617567854760672
1.3455658778540092
-1.2782589931623343
-0.3952258112424969
0.274553854693835
0.3728677502874881
0.8410515458510337
-0.0028555685954284593
0.15118141888589687
-0.2433150511891643
-0.2950627930239199
0.27660273986415385
0.351952142779834
-1.1419750270487226
-0.5075071342000659
1.0427127434611454
0.324177803066551
-0.37951524733963293
-0.01007964320700383
-0.668112464960146
0.9599298440302597
0.061048884524784075
0.6620875291270505
0.19068741084220453
0.15095910441131188
0.5502347283031601
-0.682879053240486
0.11094029526481497
0.6055792020337036
1.0625644824720488
-0.20942284976027203
-0.6284538468616415
-0.13586399719704245
-0.06649494894851538
-0.05734266010503708
0.04570358236006977
-0.024774045315714477
-0.18505057071726616
-0.42854547110146746
0.2914262956632029
-0.07282188113919896
0.2470862966340781
-0.683111129783343
-0.4261198943195309
-0.2527535688618465
0.09408945168717764
0.5126576122628808
-0.5769720066785979
0.733609238022153
1.1518072971952538
0.6082550351830764
-0.17377086534185793
-0.2957183293821166
-0.019960674769643694
0.21690076815975734
-0.09491283467538558
-0.2368890243451901
-0.9278203819044172
-0.1300438858919959
0.8129912105109285
0.40031858876883475
0.5682802849137676
0.8449306122388323
-0.8083937737735137
-0.06691576304256353
-0.18234474411322876
0.11427053820789146
-0.38986729585971625
-0.06262955340578935
0.09183654607534397
-0.18339544747325132
-0.0482388991907895
-0.0032760284037963716
0.10189518143522391
-0.3113192291458464
-0.378169940771826
-0.07490609114596392
0.4700266138248732
-0.09024870766074411
-0.07969932957581238
0.2314818823456617
-0.26857546231407337
-0.25028588849066047
0.2749335036338394
-0.3947417532756561
-0.032350432244856675
0.15291734991951123
0.5985125504153284
0.7519591349692276
-0.920694674989142
0.25765944616695935
0.14620930608864013
0.18077617724491957
0.9386729629780075
0.47216504935869485
0.21472961870345952
0.09680993202455701
-0.15940753325792145
0.34112504857075987
0.488413288546255
0.07025625921432965
-0.04200935917982829
-0.16379682231332482
-0.3489098714242881
0.46297635909225765
0.2319153390392148
-0.03410697022149112
-0.26401849756186435
0.18191253050427658
0.06832001667856846
0.18599050067985223
0.21022721139439515
-0.30349853438790886
-0.23746408882543002
-0.4673985956880118
-0.12279499823899165
-0.3421441652827665
0.055585563407330896
0.13555517776196047
-0.4381478752066015
0.21800849994536142
0.3577301366717093
-0.09099151215774581
0.0068756529801746735
0.36797574597507476
0.12426569617450434
-0.013469927429123785
-0.18894106627178842
0.4620281771671263
0.47503030428528226
-0.564721995624589
0.3565916581085148
-0.6511729643832278
-0.7774439761843336
0.3770904840417806
-0.06102745322998293
0.20412911358391028
-0.09347831715623611
0.09170881849849077
1.1561865145318952
-0.07873366770393864
