-0.1639935927176449
-0.2126736820703743
-1.0086065204881363
0.5060829650070726
-1.2600584221741025
-0.38799969434341186
0.914475030316027
0.2794140181544841
-0.9268802395351683
0.39839355852599234
0.47807052741090184
1.4654564570122584
-0.04548083455233498
-0.3276698019911094
-0.06967883267461661
-0.18383532331510377
-0.25807566170196283
0.3872394473790943
1.1158399718710288
0.5800155568789431
-0.7782169732216256
-0.715329608387225
-0.2972810807964611
0.9631184587031125
0.182783678236917
0.6111578831880902
0.7328487486832149
-0.9456577278525551
-0.6781383151402672
-1.906321212800136
-1.8200212320024267
0.2004203243139384
0.8210244339125554
-0.5762808881046823
0.7697497368963511
1.598817919666487
0.03665811160827381
-0.3662516162224132
-0.08130487663638697
0.9223834688247814
1.059864790129101
-0.03905424015904868
0.3922208678354362
0.1428174201103929
0.2795294418257033
0.3546551427748478
1.1384077778165331
-0.25779919750336655
-0.7264490254042779
-0.1436207237369045
0.26656017265616927
-0.03847068975635526
0.24818085193032047
0.7398744810228646
0.43546421790867673
0.13331843349196126
0.9942550339914771
-0.05732649612077512
0.6066655984815676
-0.24530591273808366
0.23056529744101095
-0.6994522884163692
0.5034715919040229
-0.6074033968029696
0.48708004749199374
1.499419616710409
0.6398792807385738
0.5699893484922098
1.0385351045802602
-0.8012874874476885
0.34307051172718517
-0.2964891260400967
-0.6401518103476007
-0.3318436846148012
0.046550653556094
-0.3025215350018845
-0.8220385896106479
-0.13886075696132405
-0.2605609679438703
-0.467395157427575
0.28615992812495383
-0.04724800806546381
0.5327187759810887
-0.6495333757439654
0.39547309133624076
-0.1775639179585885
-0.3199056009898459
0.13519651351629192
-0.4111768068185182
-0.10804482398040038
0.22529373113911877
-0.11726873096169266
0.14032190008822654
-0.27076906256695343
-0.01744309082270068
-0.1227960048660891
0.6475948043928788
0.27564770090158563
-0.07693646324720393
-0.426760393392727
-1.5251637143763572
0.37798459057698974
0.06336115441535939
-0.3229776104462381
-0.5513140995276439
-0.26002312086118085
0.8815269772675507
0.19639873852967416
-0.7229848525746637
-0.9220124820397936
-0.7326010118342681
-0.40848739389694266
0.1329771353453325
0.7349941078915996
0.1470252460523308
1.0893885492478308
1.2020805876813427
-0.4093873075759019
0.3426064364488287
0.5016194955811235
0.9949336439546232
-0.644889034473464
-0.14955784868104893
0.13553354239783522
0.26636926876404954
0.1979602486353127
0.40881295218875324
0.2133630132483033
-1.5109106132802805
0.260346245304648
0.1572049528134123
0.210117340991004
-1.340167331596262
-0.6734792598201361
0.8358705905513402
-0.3378935420671859
-1.2958549484445951
1.3689294363564575
-1.2599652115447677
0.15938292822603695
1.1839238348490329
1.0405196515494257
0.6723720963431083
-0.9235226082130886
0.7548473764597206
-1.1505660311367782
-0.6732006389114727
0.666271840693365
-0.28927630126593773
-0.0544251860853161
0.2243300069879215
-0.40483844689194304
0.3142752639129326
-0.3354841176788077
-0.13152372273794
0.3694763093947966
0.32440084848785256
-0.4163565645734425
0.2016455367707568
0.10921639825941987
-0.2453690794807245
-0.21996392374024465
-0.07610018161363541
-0.44022747026127595
0.3167380118295331
-0.496462873625765
-0.31749402798076654
0.34336856046933584
-0.019006474371195736
0.1981739889931865
-0.40776824513805765
0.48605671157288866
-0.14441052426745637
0.09891507603425131
0.029839833714919606
-0.3187409668637615
-0.037473408795395846
-0.0890033158913287
0.47783395624039815
-0.18875156413505234
0.4218401657173344
-0.2910645186312747
-0.16979187277868435
-0.2940304200769468
0.5891164324935878
-0.5622822132632584
0.799617862790365
-0.3473358753872118
0.23059613593813044
0.1670960743154275
-0.4462023953178289
0.0818253592383219
0.46388358884041725
1.121152000809022
-0.10423707123487136
