0.20199172584119707
-0.12588760188069725
-0.44725522397814355
-0.2736374796070643
-0.6733327803403997
-1.4657398345547907
0.042193673902757634
0.12385513984191598
-0.34423333613184526
-1.530699674854666
1.0650594367390722
0.816057700892487
0.3490450188095293
-0.7569317715432627
-0.2761216986795506
0.5265509535593633
-0.7294178007934876
0.6018061474950076
-0.09995681089848507
-0.19831519238704287
-0.04134414079190707
-0.1920931905077976
-0.2684128245699181
0.1422303098637664
-0.5948297518951451
0.28742773064640603
0.35877587872906747
-0.38639040350712195
-1.3414185943911696
-1.2600966066553339
0.08078879868195066
-1.0266197034853248
1.2452029958561797
-1.6632319307326102
0.2216970432578551
-0.3866217518990708
-0.7065334646189644
-0.637062186037315
0.5883660532210346
0.5470759648467034
-0.5701872370493992
0.9827004246934519
0.9431599373930917
-0.1621131211894017
-0.303995539429743
0.19212044856388266
0.23267176394379063
-0.7850276555582921
0.5155731881488683
0.6302010066929804
-1.3017741102472447
-0.08752518233356332
1.117702937301924
-0.8353868978804494
0.5113910352598574
-0.5662047816998732
2.0645668136212283
0.7830824123773539
0.3169853499872478
0.9319384523198788
0.5413475572887188
0.7875933614621062
-0.4674884183166008
1.0569716621857062
0.029610648717001475
1.128321677048215
0.4284754764175819
1.0627221181475384
0.5662850174401428
-0.20569395235295562
0.733723768443955
1.0744938717246304
-0.9185230040323394
-0.1724762588039569
0.5006326683207911
0.1978903345049381
1.3534805161783627
0.3543089111382838
0.13054411908124375
0.586852449318739
-0.3715506766129919
0.31014925091195655
-0.04564377718168522
0.8928281911104785
-0.13095578470796454
0.09476060991019031
0.3575708583037436
-0.053926360130804984
-0.18576304853606895
0.07906403791864025
-0.05524953150590206
-0.1778705698583386
-0.22433854424996924
0.5248706925998099
-0.19980508691283094
0.14847840772153165
-0.18308807557416684
-0.49274239101440387
-0.539418486314354
0.5338257561734894
1.1484888409301761
-0.3992228615083826
-0.39550122028390455
0.6445758927455918
0.5603222918646824
0.5435880020600894
-1.0793427562024864
-0.4115054336374008
0.39389721716141046
0.18293767814828976
-0.3520964435372129
-0.32687211598553423
-0.06910414396555753
0.7356560912899663
0.313651966804112
0.7968042844130432
-0.20297786383318273
-0.2301192101421281
-0.024379431298260812
-0.010470510069856886
-0.010862873898971115
-0.5720506948551143
-0.8420527690257171
0.26711627052247167
-0.054038246206680296
0.9913761798350622
0.3889196618419941
0.4628281827254128
0.28507276504712264
-0.31085896376361677
-0.5159214386131779
0.5453936120015139
0.4863065190354181
-1.040068614589749
0.057868709359890635
-0.4768532171758735
-0.051806210635978234
0.5086500110473078
0.1734986398813686
1.1560891546020464
0.6982543680390907
1.0495200700375777
0.5330425445596743
-0.2609986334100233
-0.14557103753162326
-1.0078090150599988
-0.9737509359734527
-0.24582586443053045
-0.21089641809753856
0.49640362752523914
0.3524537051247951
-0.23037199755736326
0.13991375407365292
0.32173791385866846
0.1640190534255016
0.33307447959033143
0.20043382299948398
-0.17589771184097092
0.2925175739233489
-0.021139778501873985
0.4491594765813288
0.4967427208425217
-0.43843735133231077
-0.08556746493535461
-0.007159217997931622
-0.058642455742716204
-0.0721465627153729
0.30009169383138046
-0.38233843863923145
-0.3015156759801445
0.39946393596961416
-0.07307035148614593
0.4331357225993362
-0.33085348340661946
-0.3380842018603558
0.1383264438401437
-0.4021126516863146
-0.24415748449073804
0.25129874840731126
-0.36665900261169304
0.2932380141252139
-0.0894705577614171
0.3685853276514669
0.05302724203239095
0.49974039853632235
-0.2875899558524063
-0.8912340688263618
-0.6801138345955889
-0.28259786716984425
-0.28428196039008125
-0.20095838893395257
0.07399249151390153
-0.1283726421850322
1.0519303351556943
0.052881977673544744
