-0.00966150106657604
0.042795944496488936
-0.7095184491827664
-0.6412540619026541
-0.2929514827764199
-0.6393323830135278
0.10869577725384083
-0.4162893802946578
0.44274355060471926
-0.15357654993444791
0.38015397718319865
0.6625605094063751
-0.2480924651352573
0.05145295214988199
-0.5816787997232238
-0.3635958602053925
0.03752147072998002
0.37268070353357596
0.5392636972504392
-0.27100038188037934
0.19906697421071762
-0.31942253823471956
-0.02814231307413473
0.6851751348499806
-0.09088100203291005
-0.16597872458568186
-0.2762577808668881
0.17229246064315495
-0.43719751077923497
-1.7018133791229562
0.07405411170161746
-0.6413632539413754
0.30007336525362016
0.5087689654064449
0.2822648603842055
0.6058076541242392
0.3929014503242789
0.459942546635436
-0.2356981877733696
-0.2503048714432954
0.07869963510364875
-0.7931169851005104
-0.654324577604444
0.7898411882863203
0.31452309438434645
-0.5313661739237162
-0.17372510376048567
0.2891697585385615
0.24854163485963732
0.013704086441613361
0.6486632589856391
0.43525694399292303
0.02965607744564136
-0.2273823291279593
-0.1539493422889392
0.3763812091245703
-0.0379616077078796
0.127648090720603
-0.4082871079143413
1.0780034054985879
-1.216073778137005
0.4915055951239198
0.7118145608350466
0.1480902970124255
0.509651838713753
-0.6734769191425931
-0.0077639330014429575
-0.781089516825558
-0.03030674033965619
0.7690834010721439
-1.4950909995360153
-0.38163503299187285
0.21413062458558563
0.025368887751485825
-0.4109685077241715
0.3973815894482111
1.0132938808151848
-0.0427128309905922
0.1392172905859147
-0.35803751253503424
0.10341816614453558
-0.15555692587017111
0.13749400163328718
1.2172710385720564
-0.4185758657306632
0.018533015643363404
-0.31546777611111443
0.039984362334150925
0.1908494706151792
0.1953490780794498
0.9041087465990023
0.3264606328260693
0.22827069939903932
0.6101470780343974
1.351340653609412
0.28079918639269685
-0.21541789649513843
-0.3227772417115691
-0.18936769409802967
-0.1447211865103598
1.0344774096424911
-0.10203704230549404
-0.18134570607386102
-0.31343577227631425
0.2702201162780953
0.6145534863319946
-0.3884449170619726
0.6630078185894355
0.26539995429679575
0.4880063917424744
-1.04780125106655
0.3500134263557084
0.1767299348656941
0.8732663201804249
-0.15289057546072338
0.4388088092742636
0.505449872919044
-0.06652209747203464
0.09429249365073833
0.428670523424859
0.9804768406856879
-0.010648475273665414
0.1932239689661277
0.6011865361566457
0.46565632634740517
-0.13575084342014998
-0.05006131849057471
-0.5184354151078083
-0.12563704387557673
0.408268168016667
0.23839773966009548
0.06263645791991079
-0.543281754532552
0.012083339872252963
-0.4387186065835158
-0.46622214583883015
0.4705082539882598
0.7516698962068611
-0.09400789829670764
-0.03203773495134221
0.02134570115336154
2.0405403865282747
0.1669270624432927
-1.1096174130888323
-0.8441654858798937
-0.41535725553487
0.7798132360918102
0.17125045692634877
0.4746682801802492
-0.30985581219702896
-0.4844477512244262
-0.14985461875877848
0.01761702601436721
-0.2648062797772983
0.09012158434529027
0.06069773373505061
0.1311861321614527
-0.49637312810185596
0.15434618525710941
-0.15774021425564055
-0.11237927025068706
0.31433519344184235
0.1342042989902027
0.17237195915746362
0.30798504586625464
-0.38165611647669595
0.16800995105415728
-0.09843228688693562
0.23490016212280684
0.2825357451939763
0.16832019670652276
0.17356704429370728
0.08530676573029583
0.1397602584822818
-0.19992363358487408
-0.3908765567877521
-0.2595146361270577
0.33038270783377943
-0.3536279443260353
-0.48460382620436504
0.460449679126685
-0.40197660791493295
0.2912486520998916
-0.026460854399364186
0.7029084382888402
0.4857955834534863
-0.47763581933455557
-0.43244649270958213
-0.4862032118740428
0.41264364822714583
0.25339031020365566
0.11449186219100138
0.29953127168125215
1.284794167876535
0.2246246641073928
