-0.716466453467093
-0.6222376641825048
0.5805335360048383
0.6066897194904826
0.3683771867709693
0.6645462615690487
-0.34178345488445727
0.4359563066689546
-0.7081432223521352
0.8195772916700688
-0.21783105555098436
-0.42849291697619585
0.5697988742594358
0.2135555492273601
-0.5574461896935377
0.9585559037036187
-0.21594400663531643
-0.361198456842877
0.07759216056523965
0.8210537066161636
-0.7895746875518697
1.0747307631974885
-0.9107306013956387
0.1523720976788353
-0.6482891094961224
-0.3969292848460326
1.0966355452672425
-0.23330006635730205
0.6475790804761208
1.5044936877442443
0.2855273655414914
0.9566592351382628
0.972007565982878
0.8736925386346712
-0.3428309837617497
1.176260837946118
0.14663783426209076
-0.528870289662187
-0.03355512305540309
0.10219615004100457
-0.43870076764886345
0.1573066121325074
1.3865812485171123
0.271843544999983
-0.33386518349307615
-0.782781699398203
-0.17333915187130933
-0.7872361865474581
-1.5259795160403282
0.6357192229760913
-0.14339154236135765
-0.07205388110820177
0.10590277466865439
-0.19032737460758375
0.30521277101480593
0.00837666424482908
0.10931419610903126
0.6544510916626809
-0.5586394004164845
-0.1221872290468311
0.3418722062486068
0.09671846349921931
0.30942513369941427
-0.502416470453093
-0.8893818973495642
1.1681543650878772
0.5807053394098487
0.926083735931424
0.8580333197534968
-0.4527446012634666
0.0794177152797576
0.8129259735397958
-0.2685658686565118
-0.5691254877358615
0.15543566944061415
0.3347062765394774
0.7156221524425588
0.4563345632928997
0.048623608477731506
0.021017429155612666
-0.05622035618565935
0.11139027427555293
0.19909956297707154
0.7008963091600287
-0.6080648092322436
0.16831827454822157
-0.1016639023024708
0.05535453133386148
0.4044770661993271
0.1979976251403872
0.6113624443614021
-0.3700013910984262
-0.08182357144085439
0.3774462292161729
0.32251003476680895
0.12736389926991065
-0.09756263184289071
-0.5867694335696597
-0.27377701729178194
-0.13362270942587984
0.617192074819064
0.5016804451912216
0.5291605724247699
0.07679806504195974
0.4275917849458277
0.24498284032786077
-0.33027921206818034
0.5957848318612955
-0.15162193085025333
-0.36403557542358334
-0.33489320203854545
-0.23204155836925255
0.3741070091777602
1.9158695165269513
0.1372353013261588
1.3592359814575765
0.6045286988895773
-0.23007446854552693
0.09323299579268374
0.4269548727009165
0.48019623000393097
-0.3531295045159851
-0.3696952464306351
0.4349985548649091
0.3223942971567816
0.5396314654808583
-0.09846930144224042
-0.2465643789696813
0.32375394123913337
-0.9723407159779518
0.4535127689756012
1.0265829728495746
0.12147603435538656
0.9393478719227621
0.08666860333561244
-0.3042635980303927
0.7126403331519953
0.6304947490052855
-0.6167519205662555
0.4162248337963498
0.8621003868370047
0.1607434344315276
-0.2606510335615092
-1.273669734741445
0.025970498096777095
0.11910855963699019
-0.3458762008927243
1.353406280689771
-0.049756830816765074
0.44739002754212176
0.24814378937652204
0.20231269736819613
-0.42820025698402964
-0.06563928781899098
-0.21312143209276224
-0.011807582068653288
0.3484589560757928
-0.4639965176584586
-0.30508235887708546
0.06524966285474731
-0.14432870580879764
-0.24103161117445304
-0.44710435755110656
-0.20606003500801717
-0.4351494143824639
-0.21227123375104173
-0.42695077429003825
0.158409008634821
-0.4672726445608274
0.04883001688194755
0.25953154173197734
-0.057943474081111
0.21680563276647413
-0.15929757936420663
-0.20279871664208005
0.28795459817485225
-0.07242629204024364
-0.08702011266536558
-0.12661522161095595
0.13206582082264207
0.29237748793005525
0.12633632008353468
0.07949192654709214
-0.05259782152561765
0.6641524075151954
0.8518194774643848
1.3399009315399377
0.7932733595211476
-0.46404708497774194
0.3310533542558939
0.45520284975483205
0.3299685119594883
0.13727062949376367
-0.9399519426103731
-0.16504781034337213
