1.2304147272726953
-0.8089253300721052
-0.7525496081971134
0.31397837099397385
-0.20295660775398938
-0.5209264084972879
0.6538350229745522
-0.3728128432851925
0.17983094903591368
-0.5792788913134597
0.5284004281007986
0.311586837819103
0.04973459982865547
0.23719057755168216
-0.7712134183400435
0.16401082541592116
-0.009804221439920324
0.1772546029084907
0.15802787444696387
-0.8829067427421287
-0.7735572675980888
0.5289673518230493
-0.5680926240585732
-0.45006532478157757
0.33500980246136036
0.24827442038001846
-1.0310500753182525
-0.2421394350987348
-1.4040542411394572
-0.5678838678040846
-0.6355055516057966
-0.09100105853817941
0.736227472801342
0.34765040424326954
0.3487275082149679
-0.08034350980995697
-0.4923652064763401
0.6843356006226862
0.2528471652176668
0.5077974764356501
0.673763204009612
0.9577596506590138
1.5543745672174714
-1.0709207731210328
-0.2777777848729607
1.021712910411098
1.0953530789362724
-0.6673376655680933
-0.5613162749229991
0.7727643050327957
0.04325946262845326
-0.03644820538418969
1.164665056566092
0.8022030630782622
-0.619829990696635
1.058659373173749
0.6569671194204241
-0.1016671108971523
0.33994632167579486
0.32658979222722984
-0.17832237822288155
0.1585508224517248
-0.725528903207632
0.03993383945120166
0.5445423626239458
-0.9464790621474902
-0.47110615461364214
1.1481497592154675
0.5676968195366772
-0.8613174725414584
2.6094241034360657
-0.07307263658144303
0.06918285874209917
0.41948254639097016
0.28889131938389145
-0.41635626908735646
0.45716307196912886
0.9638500568247124
0.18683200126940092
0.6729980058183453
-0.30302994328755517
0.3565467902785875
-0.08759153620164384
0.35359095052672573
-0.38464523967880393
-0.3050622573609525
0.15190845185253976
0.1413398951372966
-0.49309332680622386
0.3575686331260737
-0.1920806945128396
0.8003629306798443
-0.1335473339676595
-0.4536602944918795
-0.1653448447877075
0.17962570672934763
0.11442113119281871
-0.75792359783756
-0.4713317715190075
0.11640739731279659
-0.4140875615592432
-0.7156424578968563
0.5632174028193515
0.23748300948555523
1.0309414240907349
0.3453130278552822
-0.3357801833379579
0.06684163112220431
-0.20939172036090614
-0.19273297542118517
-0.38098563042608147
-0.15258293520667332
0.2228189514663117
0.9574261111519222
0.11364210346432024
0.6358067265208822
0.4720990575560282
0.28292878194119164
-0.026743186430991717
0.3046772583710532
0.7465213387733105
-0.08313072029439683
-0.1482919469624061
0.15743345160066535
0.06396070084226047
0.1460780071842489
0.053685407849809685
0.40521500488384055
-0.36054694284678046
-0.29556465243233987
0.41009839271582404
-0.12615837808971864
0.8542152956017319
-1.2633779641723875
-0.6569086717030309
-0.28813346018224484
-0.2675355508122049
0.0677286127707194
0.10601420821888108
0.28510655864511214
0.9998241808710087
0.4804266217001606
0.399042890042721
-1.0995524202913467
-0.286908747532738
0.6143000771641081
-0.35979793864034815
-0.3142564612870876
0.6528651701159038
2.1348299296025273
-1.4904138742545219
-1.214878462113645
5.083885872869702
-0.02560529481074214
-1.0092164723043757
-1.8171829927348053
-0.6450218230915378
1.9015808909230745
0.07195377886146526
-2.469305113992146
-1.6886530184870043
1.2499731115657116
-1.0024296552142284
2.492252550861169
0.24063294351029874
-0.1471907572808675
-1.9086536622655317
0.558789942239341
-1.6490414642011815
0.21138008859520752
0.5349295792696243
-3.167559784239995
0.05137482803828497
-0.7372103749856064
0.9974391544939933
-2.4212471515294993
1.326567641231894
-1.2335606984865906
-0.2867569943036786
-0.3258014777610916
-0.4835368591436888
-0.030254226330237777
-4.18355235485286
0.5314713163148048
0.7185854239337282
-0.30261804048519225
-0.591115818766125
-0.5973366854856196
0.2242134572111909
1.1383583536417203
-1.5972320068629071
-2.487378559255854
1.7198513586756787
1.1278368781107995
-0.1892506530248118
