0.9745932314313805
0.734996148630354
0.37753410888430006
0.028884518934483183
0.17192397088287015
0.46148462973016413
-0.3756777847430469
-0.24105024372728612
0.8270073615655074
0.9870695481016687
-0.6187896359923568
0.5027451324960543
0.420323009942732
0.09753791862618366
-0.12325161237630655
-1.2172563943341614
1.2649101414509367
0.43794938535495953
-0.8287033867206854
0.12723101948546822
-1.0820548818975375
0.7099005332797117
-0.8830683817674925
0.9259640724518741
-0.8876528659835075
-0.44352041460174907
-0.20415732091741967
0.08507134278590378
-0.7162334920934184
1.7203581529338146
0.6015809872869324
0.5556294576148169
-1.3000934569160556
0.3681980632068751
-1.0067969154618706
-1.3333947019330386
0.36923206809211717
0.5021828461229436
0.06425729897184973
1.1206045338846375
0.007459493703687259
0.8887992793606245
0.6988114262739709
0.02533944068663374
0.03757895606824868
0.01916249730347641
0.8148069855007465
0.23110983135911478
-0.10986776645276009
0.032016201802421373
0.04556554419560288
-0.16541267956617134
0.16871831257456105
-0.17542462501108502
-0.2260628810085129
0.5732718183208909
0.37044346721395405
0.5594189699459182
-0.09203216768258649
-0.34382468938299937
-0.7894300876895873
0.2156264506474561
-0.07538191552430629
-0.009267700182392646
-0.3497006956551064
0.09704517355365516
0.0020090027213892636
1.3534907531886828
0.1612684472694974
-0.09613456115718833
-0.07646894926356318
0.7658684524815365
-0.08138432988986988
-0.31136506019996923
-0.5748463876907585
0.47654431559690136
0.5914392886831337
0.2755954374838283
0.38000081050051515
0.5092334215573198
-0.4848328497521851
0.7255550168958131
-0.10165599276411041
0.5552945050878715
-0.2955814841987342
-0.5400281064670538
-0.0992436577286625
0.057386579128407944
0.43177092302449294
0.5190932261891552
0.11240023726385295
0.11171897514464668
-0.2163460297373826
0.17004863819271598
0.21763864388602006
0.047881248997182047
-0.1935850792601409
0.17958110567586394
0.5670355058452574
0.24525466260630857
0.6588777245616821
-0.07384647110236608
0.9375400712659663
0.34657700001478753
0.520267814634773
0.7212746711777096
-1.504658135922772
0.04479923172023359
-0.35720367793198726
0.18753646760651987
0.6468873593610707
-0.4435160426908463
-0.29596508538419253
1.1420387381199433
0.29634759282577905
0.5326009068069872
0.54865453716941
-0.7970596309078682
0.3036531731316756
0.47491211809610157
-0.011540864929787897
-0.2607744685441662
-0.4156898558359874
0.4841758383739819
0.03786202018763696
0.5984886477547693
0.35662085349223704
-0.03619274861272359
-1.07272428408895
-0.3753958102867704
-0.2963498655233552
0.33306984078074586
0.3405138453295544
0.30234142165635647
-0.3952767257212687
-1.1108656657266538
0.42999366897210844
0.7763021432182446
-0.12590853391294965
0.04239030566899549
1.0157504823858496
-0.04582971101627864
0.5871651666979152
-0.7238782706808969
-0.6448502543273721
0.014496622360166578
0.6309293944733163
1.4787665155247625
-1.5237638845698216
0.6334073774418452
0.20280844875064452
-0.18266880629504922
-0.5817126861972296
0.1932106154736185
0.004392150148691654
-0.8008893385230074
-0.241630515697423
1.03248690467702
0.05918539767327058
0.05207876229563535
-0.2053015575253474
0.21291535973151698
-0.640096818488094
1.2514786219680172
0.005423017976228128
-0.7059003561967963
-0.9260403821169501
0.033827357123662694
0.20503756351764613
-0.3580620756467894
0.0846715517956319
-0.13295605418783019
0.7774862986306144
0.0028656397200208517
0.38302314820177896
-0.3418098217826242
-0.31289676230370855
0.434548273235141
0.31682622301721974
-0.2010264084251142
-0.09477219843060514
-0.21350007455910358
-0.344030409975827
0.113189382589299
-0.7061929040075052
-0.8451682482466965
-0.7916091043067376
-0.7622300268359955
0.12274169839785232
-0.006728482248876011
0.37905719918430125
-0.5842163689082615
-0.7573564326910246
1.1172952208676747
0.03263759477905004
