0.3572916489021566
-1.7494060189097471
-1.455841732253793
0.4794827207131219
-1.2284964808678382
0.8043559261027386
0.2772790723478147
0.8123364467601402
-2.272316495600061
0.4983082548111649
-4.260809096588998
0.6122533840618649
2.350132300258157
0.2675848234003524
-0.29867652167605496
-0.08055159869239881
-0.2260880099533481
0.46878586082762574
-1.2822889495876701
0.015311201642805417
0.12705400602874561
0.2937990946652168
-0.9763159664846883
-3.2181096028221483
-1.7058632784280257
0.10329262738871026
-0.41303435410049083
-0.5400255988507681
1.5247996546877176
1.3560112866399514
-0.2654433172547367
-3.2332496486056206
-1.0939118580055087
1.1146274385395538
1.9041551178586142
-0.24971396173369598
-1.1334842115865058
0.8160776440306936
-1.3706132526001222
4.288381606964509
0.9921246854552308
-0.18633769930867083
-0.7860714131609301
1.0185653462680193
1.2447613682446692
2.9216858528137126
1.4656088105883582
-1.2468072743068963
-1.8174344526563173
0.20310055860075094
-1.9709806725383783
-2.386423304002621
0.6555436513917923
-1.6097852349278226
-1.6493320089337051
3.86815116983896
-1.5056905419839515
0.5803649388064485
-1.0541145733690338
-0.538643990343646
-1.2039324806369707
-1.4467003042852586
0.29829085145100376
0.9676880431166275
0.33460695001452
-2.2164700303572604
0.1079154335856023
-1.165689375702236
-0.05721703213117224
-0.7822331117487549
-1.3058664668997169
0.8760588211363418
0.8372055954693778
-1.439188077313173
0.23371777069120925
2.456986342863282
-2.401680513691917
0.5375222734559677
0.9603223463233497
2.310386246740091
1.3260303144361103
0.05411787166981752
2.2751939549083566
1.694739055829218
-1.851057937676622
-0.54035378234277
0.761185697879964
2.102328722413711
0.48064782841503917
1.8275889159232177
-1.012964949782637
-1.5711729980149565
1.522521159681066
1.7454229505194165
-0.4598991217948938
-0.01353513200762102
-0.6686735743555852
0.5275141992163359
1.4951846820718697
-0.11747339902902565
-3.851953751354227
0.20002898233723865
-0.589498479735513
-1.5123662162011378
0.45583510875208866
-1.0418011767954491
-1.2282915671507304
-1.9771950681899304
2.2154339146855238
2.4021072324555783
-1.3105212613224908
-1.884481507412835
0.0806319859213922
-0.018819537672399855
1.1982240562029516
-1.010079502835164
0.6518490104007384
-1.3745905536886966
-1.016115400890012
3.8306586039799857
-1.3836666740307522
1.5888025727984525
-2.45267608458616
0.8265575143518649
1.4529269531885323
0.23211984047214085
-0.5201277894688924
1.7130394966774762
-0.8152052473141312
-1.7122051530179672
2.349713217660491
-1.4656823743122436
1.0987265521042102
-0.009179969567751578
0.19752823412962273
0.05341184421742429
-0.14535275126526137
-0.030773978998936746
-0.3487027839986607
-2.3815427318877527
-2.440795542976361
0.41786835520329724
1.4562371919112937
0.6044198383381727
0.17757517156305935
-1.3355879581529373
0.6386786824615367
0.12750530055095088
3.7215285101584685
-1.2156842477279255
0.32721257416407756
-0.2513752957490585
-2.0220953906517494
-0.26507202168097577
-0.32276134574566206
1.3754176416181472
-3.5588719167178766
-0.20526522121548085
-0.8663545044780571
-0.9001329063756534
0.5275954623492214
0.16026518513825638
2.18995103679042
0.06906967119175533
1.4769910187223885
1.025694463817791
1.89044917754349
1.1417100711287027
-1.8559855941078371
-2.5641310290863166
1.2230996235219096
-1.239163385844257
-1.268873872475527
0.84155524777883
-1.4214966086451328
-0.06731657845138861
0.018836453188374014
-0.9832302969237497
1.3927105366258596
0.9340488086674927
-1.193547631175199
-0.6805266561123525
-2.1650925606285165
-0.5139372005817904
2.3561329076699917
1.4275298408149877
-0.9720269382891621
1.1185085629781932
2.750992613319837
-0.33632000371062387
-1.0887587625557285
2.1533581175060506
-0.11317818536690294
-0.31467330838198104
0.29079170467680293
