-1.2398970497070603
0.19244096854652026
0.16654637433587582
0.8477060820036775
-0.12358201846087946
0.9228874771437998
-0.9166164137280934
-0.24843204219506065
-0.15735165357747727
-0.05380308859497085
-1.3529502143586951
-0.6617941501226734
0.09466520146126645
0.8495518295554267
0.7863330666486417
0.28904068713201003
-0.1548398508286165
-0.10215058589706827
0.3708482508686789
0.2035078216816809
0.2675498622354834
-0.14039959769105137
-0.9202925943057553
-0.3025521498345287
-0.08525116732048021
0.7054014246501199
1.2540575652365034
0.1346226372732282
-0.37900754951344284
0.5402980573626044
1.6863020838942675
-0.7129173329865761
-1.3879985416001293
0.9522240490732949
0.33508753397178015
0.3761518252797742
0.6327413229072154
-0.4338578256536675
-0.3198545081353643
-1.006592227081117
-0.9796365039834889
-0.2092272056349651
-1.428271691839212
1.1051403635197576
0.46593854821801395
-0.764561836479573
-0.92845098098869
0.7723053218574032
0.3226810263647861
-0.374594192316003
0.09749647961292218
0.7698542264820545
1.1974904864988654
-0.262257813688906
0.7821566416624046
0.24718614777623593
-0.3921827649814825
0.016113430681471974
-0.14140754032067404
-0.38067557271691066
-0.4876896224372963
0.9659698007558404
0.36318464021792785
-0.9258507215419297
0.6258432415861241
-0.55710852182704
-1.8361917100392668
0.6597867385285001
-0.6308019645194464
1.113402858428901
0.6669783863259542
-0.11939088296015887
-0.36902364244504493
-0.8317811802381316
-0.31331429314550907
-0.10582538046236978
-1.2856363624560099
0.21771637206706795
-0.6229363627744655
7.559499815655846E-4
-0.2630527056965175
-0.895195133272484
0.37308870601175226
-1.8168678469627397
-0.6995345411530925
1.2055190386993024
-0.07130329534260427
0.4301700224849725
-0.7226535844522608
-1.5558159399808105
-1.145991032220409
-0.2878099066608625
0.7447364651400101
-0.48447284046954764
-0.4656346490878779
-0.6916134072790052
-0.7755704848954602
0.1477322284634316
0.9368299655513845
-0.11678168646934695
-0.5264619141444978
-0.8665174895760835
-1.3381171266157839
-0.7591738502477315
-0.2505097196118117
-0.20865841710879351
-1.3626981857778158
-1.4737572501338614
-0.7744690457937452
0.43095798828594434
-1.2340983823630247
-2.156825596687942
0.41566196162505276
0.5364714801498753
-0.184312108389453
1.001263321880085
0.4774251459924961
-0.6913537226712854
0.24733786868060614
0.6531781634531217
0.3339288421941147
-1.0825819242139945
0.4271591026947583
0.09218763962899224
-0.6405786282041394
0.3010657915565995
0.6060901795754257
-0.5964231245041193
0.9917566420791528
-0.3644033492449944
0.5352751191390261
1.2935164354632729
0.23242095594148082
-1.3213670896645757
-0.9278410779794404
0.1193204195909463
0.11654353718142396
0.40401353041808763
-0.4683437022516759
0.9505998191400598
0.8223524207806614
0.953735550202357
0.524003712316238
-0.773042128022927
0.3842209771082463
-0.512220178827939
-0.5658041869879226
0.043673407118865915
-1.9535691037942269
0.4145322058563905
-0.7141076967258627
1.3581878584094906
0.6683989001026076
0.23251014605597387
0.3314955821236414
-2.431164033724068
-1.3402242479799542
1.5740479276478818
2.3918394450708926
-2.2880836680949233
-3.776494094950872
0.2722532512845719
0.993857348352537
-0.6981196616246115
1.089749976126127
0.43282158582860186
1.4423207732353276
0.8522222423984065
-0.7391249480154154
0.0033662534001192013
0.7767768099443035
1.2689255210530586
-0.20047849256690342
0.3524422150628922
1.3209418331389866
-1.2481078762974978
-1.195599576874025
0.8210831331721455
-1.3296417733957862
-1.1391583628917652
2.9449672273505803
3.200204402843147
0.5122442953175048
0.8118053642273062
-0.47177308427057085
0.40388814156592834
0.6202935637175799
-0.2951506238611923
-0.48119779702716203
2.0599882356581585
0.28561278481445784
1.2226996168199817
1.229890135708434
1.2677863184573206
0.555474359517742
