-1.3543849747024155
0.5897693599131677
0.607590031472308
0.7971053843426281
0.5977285462322768
0.41466821650211916
0.19665550170538415
0.3831286501582458
-0.275682341978305
0.9352185099956953
-0.43908540133525686
-0.42478712538096663
-0.10003525764146715
-0.12810656533621523
0.39472476655510025
0.33740860753257995
0.18357235978668585
-0.3400195150154287
0.03360935547378208
0.6949303001344669
0.39681048526415386
-0.2320551669532429
-0.3645534910829692
-0.12360732933655627
-0.5412209071618433
-0.28393535011590443
0.8553722924730516
-1.295287913495792
1.1570329184456023
0.2797544894573607
0.33440044254256307
0.09671157797801144
-1.0112537438656557
0.13629408680419952
0.35895030860041977
-0.7024211468188979
-0.07212233016343961
0.48836469126492876
0.040119988075898894
1.2660682109717953
-0.08474181077178733
1.23615731988162
0.8159565674187186
0.4760413686606816
-0.08012570962790688
-0.32974826509081023
0.5914758899736827
-0.43124278363741897
0.14310379109652438
-0.6756379653861136
0.57025423456902
0.411586383913895
0.35369645709276387
-0.0448758034424005
0.3386263593475307
-0.2799024642723744
0.38063842879144083
-0.10634221398738974
0.7219784843123358
0.36573539337158256
-0.7968660327528685
0.3966452876150075
0.13611788550001047
0.50444377059527
0.39045273095329847
0.6290140997935254
0.3547361122590307
0.533662177023646
1.7779345345405266
-0.5254107079777558
0.1736903767401332
-0.3805215535848955
1.1249553806264792
-0.5328954915107738
0.160833936941446
-0.5198842134337933
-0.2093843949003149
0.3198967204086183
-0.20849757126848745
-0.4476486772696102
1.5397321609385495
0.16309985814915817
-0.009170584623984679
0.10628628633839099
0.5783110896188226
0.8026341043438618
-1.421332023123829
0.008917747779633833
0.11223833171333064
-0.6593507384628151
-0.5097287485342102
0.12277913192096346
-0.403817507385819
0.1334069206800833
-0.9771619457655522
-0.49354050439902375
-0.5221121260521255
0.706416868113199
0.5323759384475166
-1.5821957613671902
0.41389905625973067
0.02368645755713983
-0.42945858051531993
-2.3953065463871406
0.14511765652220932
0.5149853602254977
0.6138612239968948
-1.3714131384099932
0.6058096962796999
-0.09801579397432203
0.18010944963470965
0.8576937816575692
-0.1115826340505286
1.227202854049645
0.5123572109173931
-0.44494851241144884
0.09833780010605953
-0.5270066973519016
-0.052907877684266635
0.4934538439278735
1.344666783179701
-0.33983200115873324
0.24814496393202157
0.4887370348392346
-0.26225750196990505
0.04422295629858308
-0.4298492340582084
0.35334065892960476
-0.058457058504710724
-0.4315461983337221
0.03169035312271684
0.031144740565552387
-0.9614238127610717
-1.1837793867289872
0.45864852069885964
-0.70610827691822
-0.5825677957886597
0.43382404302637323
0.2177220695195906
-0.2561975959303152
0.20405862997159507
1.3005446986901075
0.398879040522677
-0.6111190304032814
-0.2237604468582166
-0.09949267514497528
-0.3094484562541032
0.34943842663666225
-0.7409661036902145
-0.951007138759535
1.321477875898577
-0.05061144309164611
-1.1329707347078541
-0.6629226989648817
0.33800785986535864
0.112473893556983
-0.6786962331088351
-0.17234857494690425
1.183357187918587
-0.7615668204730413
0.3411769376495417
0.41236439492960864
-0.022336336437201787
-0.05102678510899039
-0.9514191188873707
-0.8531400863006883
-0.8271171986257206
-0.3616988705248423
-0.12975578441461122
-0.5450845944358677
0.7145190373050989
-0.14181761029384288
1.1485559108925762
-0.20495988101442397
0.5287924851000747
-1.0375831337454366
-0.2312286972669778
-1.2976848969039887
0.14016789639707383
0.19491167632452944
-0.025076881023259
1.1761820064606483
0.7001135950147712
0.8262591724797237
0.98832978431984
0.7559308576983121
-0.7977521221338609
0.9397337430384778
-0.08536840936384327
-0.813143779086598
0.3722303676152289
0.28040218871817657
0.18703345215978118
-0.9169075030150899
-0.2031569113801327
