-0.3292483024983317
-0.19492898018778493
-0.8620629256543856
-0.009079335560086776
-0.04910029887104517
-0.5717322829482125
0.5395755693618645
-0.2781008250218342
-0.18878887093723984
-0.6384253113739791
0.1602946225329802
0.1938655526378109
-0.0504374822640099
-0.12854131661967438
-0.1299778094725984
0.23952555964205413
-0.45526123125417817
0.20615429012327124
0.11497547199009917
-0.17258900576543124
-0.029230107772438618
-0.40314496437669634
0.24472617458439117
-0.13354881698614918
0.5181384287834867
0.25692603033250794
-0.34019127518579506
-0.2874615933829131
-0.3679570167599532
-0.4414617797400653
-0.31697452355475897
-0.4201021689276675
0.2251533385752652
0.3144353527047199
-0.14041553438452314
-0.041141499542340254
0.3197126255892553
0.20108688541506325
0.31899926683008384
0.09275613884879363
1.3394025738872057
-0.33571092033185734
0.10868061722708633
0.20004264884047707
-0.35832035832303266
0.6931890163241392
0.4490053978167956
-0.9422536096727604
-0.13488000837711434
-0.8558540054875731
0.3730435101910988
2.4719901381065785
1.1077059317104254
0.37986752639081023
-0.4807403641270781
-0.26116660162443517
0.007471337997492444
0.8410475353153108
-1.8730405160865304
-1.2262483718036008
-0.5425142564740454
0.4096673153608701
0.7233485575930547
-0.13250328857725535
-2.203006752653053
1.0742539818173003
-0.5584189360827244
0.9851676062454753
0.02934323497879332
0.21797618743467384
1.7306608628355558
-0.1127869111748947
-0.1355921457286634
0.7954338412615516
1.1807454160181816
0.05875013248450378
-0.3288700126532005
-0.16901917842292247
-0.8833049409660357
-0.6972264975032444
0.22870812099024762
-0.16390292789314354
0.1319424585694704
-0.7679210691834057
0.7147546553122295
0.06658892269527339
-1.0896644551963903
0.4156138886895704
0.5643924832811873
-0.8942006159116636
0.8528240064988428
-0.09692407486280907
0.3669846605668582
-0.77992162172337
-0.1326374814518687
-0.023931107973755195
-0.34667272449352704
0.4786250944739673
-0.5244948216075369
-0.4512384183588457
-0.8161410794855071
0.6511381415074953
-0.3086983431677027
-0.4166626929215992
-1.5553084933410957
-0.6056007265850621
1.5212808268256017
-0.49523443175025295
0.8524105002756479
0.5286487029375344
-0.6086154994501063
-0.930217004905688
-0.5521716397717896
0.6970712625196751
1.3796913502166448
0.7023108666250659
0.05199558278008509
0.21168958717267172
-0.4104108797656342
-0.5077770811507538
-0.507671919883147
-0.5762122159642841
-0.5591157629475187
0.24579587658954005
-0.22848288703168118
-0.6490160054257738
0.3992431546704239
0.42375864607877745
0.5636115561887713
-0.33828796098115166
-0.06398003999763635
0.08445014666077821
-0.023096746806393953
-0.0937491761429744
-0.6206681434483655
-0.3283561002213313
-0.17503043230767856
-0.7877984707253783
-1.301635784014997
0.34308053312988507
0.7403024745134457
0.2733916388389829
-1.983188588336878
-1.3058275746426344
1.4003405334470262
1.186479348997613
0.21412643875977566
1.5003525438786922
-0.03088171352738056
-0.05698308722786494
-0.26078178941898555
-0.3102823248227463
-0.7902155355169905
0.7195307391042993
0.0606600568047968
0.8130029109419878
-1.0384139864099367
1.0607122906806565
1.0354395054262888
-0.5479251565215285
-0.8943209835203664
0.285947492447015
-0.2615546854268932
-0.05769662050201674
-0.11642924800682242
-0.7456291092549757
0.06862376451158414
1.0208526162148914
-0.9480504147700176
0.8135923553038629
0.28936210147969144
-0.1855644370445233
0.37528321573140655
0.45341817433739995
0.6869364152680206
-0.1240841689852279
-0.12030009152531063
-0.04162859125792251
0.8171844354321718
-0.05849438551472963
-0.5178411776538642
0.03869003196713716
-0.31529627720409925
-0.6256104276693446
0.8969506241263032
-0.34009926941689883
0.5996241286568069
-0.28449617001517935
0.5325460558169786
0.9500415524147838
-1.7807958566539375
-0.41141832017123126
-0.18185602346464713
1.2886022683334315
-0.3976274986674623
