-0.47616767594370946
-0.442698935612577
-0.8525972567500267
-0.2868342368643244
-0.21400448617707812
-0.24386634732421542
0.13081086729780378
-0.25810493199339457
0.30425029691096506
-0.456761479865581
1.1100029958999762
-0.04726616612370238
-1.2459746921248622
0.48953352918107074
0.08449969128491208
-0.3338441222031516
-0.3154858271298402
0.1984918538381144
1.208757488451068
-1.2995911159041302
0.6748857310343763
-0.2218529269012236
0.4658317648376138
0.5494366097756649
0.28824186319503087
-1.1644737115624177
-1.7917589551623718
-0.1603672702715191
-0.21729645044190737
-0.48001349133203786
-1.8060847012120946
0.5740677542678108
-0.005264337414187525
-1.130917544843875
-0.4714321566772921
-0.2491058392150377
-0.04779106306499881
0.47613172665715386
-0.5806996757446112
-1.4942270622229343
-0.16184007162895875
-0.4974533048211177
-0.7664196106852453
-0.43120197567497864
0.2670366171986164
0.5477831106264222
0.11500681653398581
1.0777935783830745
0.5401141374120815
-0.2957652331450963
-0.5187101987930012
-0.132325282369966
-0.23542317196242124
-0.33453823196051713
0.34145869207621904
-0.4924689194768447
-0.42509689390019534
-0.41738206146358037
0.17276245508154797
0.9225709906007937
0.08387161643518037
0.6401576765130801
0.11461717104775848
-0.35508080223178984
-0.5038491297153814
-0.5972052427056043
-1.6915551483285847
-0.05415088491839204
-0.7628426561682546
-0.29990230290211395
-0.2330290028502865
-0.4386942978883812
0.8063206176047071
-0.24284651167907867
0.15852037024266108
0.06337169377049878
0.13630509702130955
0.17879997810140047
0.20750886419927206
0.005835666147106067
-0.7607809236302633
-0.19237643972987095
0.4020857006494609
1.8139630721532924
-0.17661919882831278
-0.26630573035426663
0.13376553233351918
0.05655675481610789
1.0614192029065688
0.3903732775380989
-0.5726771745531719
-0.42233428066207856
-0.5121710696100937
0.12880854577114853
-0.13329835199849638
0.8739714400229479
-0.7762760985742769
-0.22738570988075435
0.32755938324527756
-0.7794966754242001
-0.2802345021800706
0.13489635015273216
0.9760619671974511
0.515771019942469
0.35917322749165925
0.4292213370738157
-1.2460779704151408
0.352643015376811
-0.6272613327650307
-0.6664672146935346
-0.9962115562776256
0.36234683108465904
0.4689804231699446
-1.1560118037437643
-0.44100792023396884
-0.6620422997620288
-0.6617865127996334
0.03022649417666523
-0.3579814454008591
-0.30739781745212136
0.13055916662955702
-0.28934684981311887
0.8062312571311718
0.47557864016098217
0.037811617753170546
0.04446810263043366
0.0272736411590776
-0.5783598831937575
-0.11003856837727943
0.27415252456396466
0.07434494230559385
-0.5554204187383832
-0.6265270639682421
-1.6426531676756824
0.12882657842447365
0.5336238920842047
0.6033115857561384
-0.2174533180765541
1.4969283592526708
-0.3675709726937487
-0.036451709400843524
-0.09207479556471077
-1.0358762278842466
0.3351205681341509
0.03800992574330586
-0.1513492027090283
-0.3705930748807158
-0.369378902302103
1.2255973996380538
1.1780876544274612
1.2794880098236618
2.242248070360149
2.5596071703021432
1.5843174917035725
-2.973572681174998
0.04469215069827148
2.5145001943201146
1.4824393873049702
-2.8802367371624533
0.2922267416802987
-0.832844491852671
1.6937242238252868
-0.0514181119948649
1.7874183376829738
1.1321251289549108
0.3857710196529339
-1.9390690978608154
-0.8966909505340073
0.063223060747431
0.3852623652216054
0.263588093679341
0.5900953623115344
-1.381303633278391
1.228677165035565
1.667006452650103
1.0468467737345497
-3.061686850584098
0.04999949134177328
-2.1909495109656305
3.4525832784144237
1.3958930166154686
-0.37524121942891775
0.8166290265246925
5.3152968515795855
0.8123340965041823
0.7767759321597023
-0.8102078919149847
0.7791209844554674
0.4425942437594991
2.0435197657562405
2.168563971734919
-2.7917283181832557
-2.107854791374824
1.0810321374721252
-0.3065802896618218
