1.059367326523982
-0.33573490098103154
-0.08151277493465159
0.5280162363019052
-0.6677494822952794
-2.1698627318204133
1.111943102206431
-0.6330308717261707
0.8775762392619086
-2.0400373991305663
-0.26818239498533414
-0.884708243160126
-1.1356498789279696
1.0738317546825296
0.06720962774146444
-0.07009260326127997
-0.739384111128476
-0.0839916216070834
-0.31402861412841276
-1.5250980033029822
-0.9645926069651922
-1.8694704208578319
-0.047812720812263065
0.866040565374685
-1.0922461833134354
-0.37645902862857006
-1.6791482411852692
0.5667426364908836
0.05135577000285774
-0.46998662823855486
0.1331505380672643
-1.0160839585652508
-0.31609121515446936
-3.557279062160925
0.7018544364150621
0.5304480476983813
1.0271786651305645
-0.3386909388506576
-0.2662193385505648
-1.8121269913301445
-1.0687255068984842
-0.6433318535227995
0.3265862157730276
-0.33620533228972194
-0.18585760173712396
0.4676158230979419
-0.8356653206633052
2.3361469277798976
0.6317999466859829
-0.7055587563789941
-1.341801720880059
1.6255176321260612
0.7025805118830748
1.2509581840644457
0.18340092086948034
1.3721822106293615
-0.1123908604591961
-0.7619893618248064
-0.5751362860952207
-0.3555919390711806
2.115614622435511
0.9961633688115887
0.15048252652331484
0.5856338610739185
-1.1164247061208545
-0.8800525742707408
-1.548031438151391
0.5442974950499568
0.39858724996660866
0.9214454958354616
-0.6516842060689857
0.022099884894966948
0.1415561354731948
0.16744154934470246
0.735594118608446
-0.45255646733994614
-1.8329436690861964
-0.4708722047762033
-0.4111533963395445
-1.6250495027257943
0.7116418904357484
0.07729933730700911
-0.5640811373540755
-1.6260955287269572
0.1639955384781967
0.6287444871820946
-0.5620782002528686
0.5953136865937152
-0.5074224320434816
-0.3981702158813931
-1.0672369292231285
-0.4024500517009193
0.20479927000628517
-0.8030851022792621
-1.4288903773658554
0.9260229041034875
1.3538466880225073
-1.2183428482579388
0.8802133749418022
0.37839231824966624
-1.9024951301486375
0.2119971926073574
-0.24847111572743674
-0.5182744515117941
-2.049528125632358
-0.8754088704692474
0.9709233691453458
0.9406792290214403
-0.8844716826374419
0.006105346362903719
1.1241118921457098
1.8771505996535884
-0.33401349812438597
-1.5619623723852876
-0.9429689499725914
-1.076527871607548
-0.8768297443021114
0.5705988614122279
-0.4918166717461784
-0.6791147944469142
-1.1515032686177544
-0.026329851484321765
1.1769153866701214
0.9762681340832546
-1.1222102344031755
0.31829159080686287
-1.4569152682518205
-0.2626420922460705
-1.090773245338507
-0.38089375067370423
-0.44855856969864494
1.3929199020922955
-0.37733590306813736
-0.24267462476055934
0.8275248798925532
0.9663773775611197
0.4694021975571524
1.7411851271875962
0.5652316322537421
-0.8177150816633885
1.0039493663216787
-0.9552694494869791
1.3691690432497232
0.4591914848043612
0.22621961452349815
-1.9077858244246246
0.5431255416266643
0.2976363237889814
1.5755073032804456
0.4313523772174489
-3.1913781838156297
-0.8354012325710406
1.2610295282385984
-0.7092346301372329
-0.7961582324219182
1.3532431311972672
-2.303969534682663
-0.9407886766726355
0.20198978302607973
1.1900379838097102
0.7340681649431813
1.0014889273287912
-1.4082872043895516
-1.5435216621814811
1.2076072990918163
-1.3033338973877067
0.6431080796254307
3.338098986356975
0.5097118404637024
-3.586674498322041
-0.7596466738364932
0.5358945142560634
0.8395338050192167
-1.9133870047163835
0.3565615208719374
-0.20188936899127297
-0.35996263492989344
-1.360541642422381
-2.556561804589698
0.6353791958749364
-0.7440494082214668
-0.9491169276853593
0.509984774019395
0.003228694252659925
1.0456942474026425
1.404180130652176
1.8474469672092093
1.211009587929251
-0.017519530686491702
1.569400285408364
1.9363328327466651
1.7601159877477075
1.3808427083415695
0.7939152796066997
-0.17543660139828932
