-0.3902556826169934
-1.8744166696598565
1.224871635773198
0.4160237806549074
-1.2086636109695705
-0.1466352483015102
-0.6206077415547271
-0.2284871149405222
0.9699221853927551
0.8696638271148625
-0.4464021662595229
0.9573626065396694
1.040311924765135
0.5425106942572482
-0.3575762743618591
2.179467687791483
2.186171486517799
-1.5557037413026062
1.296286614702833
-0.03318441675651096
2.343239527646362
1.2965325936438354
0.9566498967009358
0.91119757067941
0.5753917550905272
-1.802077163991407
0.7107314124595381
0.8178748896776886
0.631091678521597
-4.013122478833422
1.6545114792706297
0.44799019872512535
0.5954777912316915
0.08741163752880765
0.48206954351446163
-1.7134148127469113
-2.4967458751916705
-1.043885631376274
0.10276585175316866
1.05345782042607
-3.280236145398857
1.2022208630720472
0.5674720853589048
-0.6765739877507214
-0.25659563671195207
-1.3582796594296576
0.011625908737500024
0.2342771164233033
-1.8901840782843022
-2.1534090317256607
-2.2157931883130684
-1.03021413162213
-0.6901468131496364
0.7718355336758052
-0.2849818206396567
-0.8486392185482772
1.0062005696811314
0.3074459759250654
1.3614409155981875
1.0390387158354093
1.2993661311290479
1.138130557614074
0.5359860101187603
0.9651361419098259
-1.8535473708794314
-1.0203297248297665
-2.7503107347125026
-0.7841399970034577
0.586758468296475
2.0191599515741787
-0.26159060127500744
3.027412341941653
2.0521636135252055
0.7888571480686037
-1.3723918335452572
-0.967404114099743
0.22450933300157583
0.11625779288779892
-0.13992946885918733
-1.4966071296481445
1.5001681623062515
1.0580722783271814
2.435111732915204
-0.5148892759218279
1.872237677589295
-0.2662025542322535
-0.3311593942756461
1.1724402800732574
1.854381853296283
1.2178872950817143
1.1709398164064857
2.3880563079352206
-1.0689469768600202
1.7855494663905285
1.1357593341171084
2.203030627247494
-1.128330909314482
-1.4286935313632063
0.8514592210207237
0.22870660917365304
-0.8535108296579544
2.0341032700714927
2.468181541219457
-0.1064698779943255
0.8929558531440414
-0.8398704878604849
-1.6043317829692907
-0.592487301494366
-0.9777302190115877
-0.5731300833427306
0.9643951988617716
-0.7038833219662837
1.7000816229938445
1.542807586360666
0.5632858375092726
-0.8281562115468348
-2.1947675264834388
0.40278059727811866
-2.4468304717368654
0.8664562850004862
-1.4058341068614832
0.20922807049069603
-0.5567548397280487
-0.3872630371004313
1.605405402541772
-1.8656476473625787
1.768758212066952
-0.7640119323486042
0.9013448728544371
-0.7738388706024737
0.6490651856211946
-2.3523447299495635
1.333726330819542
-0.45395193303245773
0.3733074362939176
0.8367965190446887
1.0426785451920375
-0.09071365754789484
1.2176643885072247
-0.7289435849989572
0.38484521552936346
-1.1974699804678206
1.5471097337744015
-0.024206964710126844
0.23352402766146663
-0.3427685210616558
-0.72174548783489
2.9785149446983996
0.04569080067279274
2.1574708476791273
-0.8107982867669769
0.6893605657555617
1.1015690621602277
2.1108447856483776
-1.364256069280271
0.2150075535373246
0.3435499102674938
-0.43928599940916413
-1.1703459066264057
-0.06820239804754147
-0.07112157595560353
-0.8762441007893725
0.10214702578645174
-1.9744513679066809
1.1005770351091408
0.27376381774274006
-1.0792657359582618
-0.13428196068570586
-1.6426638970171665
-1.2856125666336777
-0.7598059400743477
-1.53820173377271
2.473812195964504
-0.7790376406194993
2.3264000839760195
-1.136898773449155
1.7928478305429683
2.2355394198317264
-0.10123107749705318
-0.32588784812896976
-0.1829809883257949
2.8905857517595837
0.5048887869164118
0.0571587576374053
-1.7850914950994983
1.0422967795462017
-2.0402147951233904
0.43959771442819506
0.5270449714670153
-0.8285304187977399
-0.511080044019908
-1.3341000899430009
-0.018842298332232277
-0.22148140848730913
0.012660788920463517
