-0.34271272385126017
-0.0852319122504247
0.9629472487354422
-0.08735564137576246
0.7194518906345189
0.694577865371123
-0.16303985443420654
0.3387886924709185
-0.025040831777165318
1.3690193949092944
-0.16020874597208767
-0.5987173684202031
-0.3216859979412353
0.022698034550101998
-0.1230737786454138
0.11396299976715007
0.8082889135129521
0.25203320180666655
-0.2380062394897544
0.46100412637260546
0.1404824631307945
0.36257012288730184
-0.4407065901008361
-0.046791178383727594
-0.27925140729115394
-0.6376540577816476
-0.3371730353204464
-0.34721110740244887
1.7491770714896546
0.6815631915040314
0.6262049147577682
0.9899987061308706
-0.33637825392750453
0.8614690625291248
0.8357070772149755
0.6713576169423234
0.6620958455913275
-0.13276170018120936
0.15522762234855803
-0.6433342086248116
-0.5665593086014925
0.3396821181790627
-0.48782745709096775
0.7356162576659859
0.15802864489750612
-0.09253486176473791
-0.5616036274598588
0.16830068169788914
0.5515621331545995
-0.7342384926239454
0.2531049596616939
0.03727766116542275
0.5804460159708986
1.1547585671502496
0.35444647727595435
0.4018724704774106
-0.9418601989589506
0.6563874022750791
0.10975657794731541
1.001593191592412
0.178009414232977
0.15525667474006555
0.34477571823092845
-1.8155864552085466
0.560822872518818
-0.40344692124942816
-1.419303896573136
0.01681745976372795
-1.14644515422441
0.1954146770246461
0.036602827192476206
-0.0010903186197801507
0.4937177698779479
0.4307316651430262
-0.6998183206656629
-0.2564949249613685
0.6450987782678483
0.9263626398671041
0.17971141050433703
0.5008882486840012
-0.5705807416810696
-0.533842204569755
-0.49547518591632367
0.8425286138104235
-0.9421615275582623
-0.14523302642111968
0.14522616808106503
0.4040549666830415
0.9985986250006889
1.7716678228737184
-0.130815166484606
-0.35778287836842093
-1.0914097247524253
0.24139663965806535
-0.044740519051168715
-1.05575233364993
-0.2342945904377619
-0.22698275112436517
-0.09079852681517175
0.35685727688985536
0.9155913804313469
0.774930352027476
-0.41064513253291657
0.5988503789918629
0.6271338211928372
0.1198930203694284
-2.256206557550837
0.287527095025661
0.8978614111643579
-0.5539686979200318
0.10712245063846726
-0.01994645304082132
0.3455731024799762
0.6461085084900655
0.3003984810107788
0.5410083261294028
0.3724241644998042
0.08285775189166267
0.2701340276711246
0.142565045150569
0.12517713185073098
-0.7782893071450068
-0.059962394976889155
0.4297032137683823
-0.08425209143801426
0.23762689849555652
0.4040556047860697
0.41500431136404725
0.08834295841927309
0.6172312993424691
0.01367506234190441
0.837299471894291
0.5950617975376264
0.4226670697910787
-0.3022871920443341
-0.3013211636819485
0.32126198223675806
0.38257821065101605
-0.3089129557113349
0.24694374622619486
0.26817746821985267
0.24592404504226228
-0.26567120030131064
-0.5167340078247505
0.443875061018972
-0.6087248803956395
-0.05200655495273998
-0.5435884978158266
-1.423910627861133
-1.5962958316638802
1.7282145845464894
-0.09007286423969851
0.975518264074855
-0.2825483764898946
-0.2754470080171414
1.3696923431022148
0.2899956563714158
-1.5452820379481473
-1.7217219015327292
-0.2650406431459863
2.3886663463996576
0.7529910934067066
-0.9424380322934075
2.256154307016947
-2.073318903627911
-1.4052565870650993
-0.048968035299808865
0.3511380829693923
0.24917461539843677
-1.9008252640921945
-1.46487960275053
1.0378375603143097
0.08743462159200455
-0.3512892068491704
-0.13415111417686654
0.6779748472186595
0.3363368562194258
-3.2267016522816836
0.8108054183712636
1.341368587692405
0.3861418789581551
-1.3120169546756872
2.9791778942281137
-0.6991378922286738
0.9378713549461584
-0.9805484074430473
0.537436130630581
1.3605542808211917
-0.17253951980711912
-2.589299824138
1.0538481116058485
1.1458512610713192
-0.4173028049162293
-0.9556420694844308
-0.07699948260239597
