-0.6882700063758412
-0.6529636541974112
-0.5552315375721568
-0.7440252703595752
0.2233872502700921
3.0835540100062007
-0.6285585840326088
-2.1935576675775526
0.18621235423359928
-1.281031426372535
1.2299341906429326
-0.2610142366912378
-0.6788148233812886
1.7368994902884158
0.11976678939170049
-0.3169942644086029
0.6319305802491875
-1.7959443940832396
1.0911150879288947
-0.452226272657245
1.508289076899466
1.8530318369840155
1.0297874979658888
0.23882326037090928
-1.0425672821264715
1.6791391633711674
0.3426856839128595
-2.0796717156864366
-3.3600745531822245
2.221678887383878
-0.3078530839930971
0.9932782586836932
0.8809107723523724
0.991565241059245
-0.032911522974950036
-0.9284500187223161
0.8541644898821477
0.963697177386305
0.30767480611588194
2.5735468067600107
1.3675015484862905
0.7731617060728859
0.5252109570460815
-0.4218355655964955
-0.2190580013157093
-0.3133787102500484
-0.047639469854618866
0.739158871979464
-2.9809642212543483
-0.17459563814896395
0.8612806154050099
-1.1805966903582843
-1.2756844721497709
0.3481603210008246
-0.509868969030175
1.4777096660691185
0.6762540950520464
0.5819255144855195
-0.9693090660507448
0.9227543616377081
0.45907380732093506
0.7194122730846573
1.1436757862805544
-2.7094211086982827
0.6299619117142594
0.3479494408137439
-0.38109915467477284
0.18384906745494367
0.3740227152165684
-0.9155296145578932
2.054072456556905
0.5276058675365476
-2.2435366966607218
-0.9267698834893651
0.20711866947924795
-0.328805162783428
-0.077397850060133
0.9208764016514914
0.6390168901347753
-0.46625003256259856
-0.24913154006215854
0.6366396915146735
0.2947587569791812
-0.14385513100629288
1.1221423374965125
-1.5314976230799178
1.671676869235183
-0.7555623669069446
1.2266437152944518
0.9331854562885002
-0.865367028741023
2.0618886873977473
0.16365869968040558
0.5788277258109784
-1.470538686564775
2.151086128961266
-0.7950616876378311
0.6492859313051145
-1.2798235763652017
1.0273740230072392
-1.4273845102651466
0.10679803952696465
-0.7546101386617282
-0.1932664172716949
-1.9948842610443442
-1.1824515614598523
0.8503215319640378
-0.7544447037247518
0.6848737982288002
-0.17067885635406743
-0.7047450804643107
-0.24030786499435686
-0.10137931987663096
-0.1203348489904047
0.7353837167718345
0.27275263354291734
-2.3698827371278868
1.961400728464536
-0.24073458902161105
1.2565461102693347
-1.8691330753204012
-2.0608045406307722
-0.33067501927949217
0.4142322894622106
0.47394864595532094
0.7694874489688561
-0.014949041322819823
0.29530430549589937
1.5686259518760952
1.0076365254211632
-0.4507062996445571
0.08818986856030475
0.38534561586669547
1.6124302699112856
-0.7246617135352166
-2.405062177669512
-0.9598644441562015
-0.17298173672077966
-0.4478017191430077
1.818125510996837
-0.7842896405443422
0.6399702725238876
1.132489868522252
-0.41253648713352775
0.7675034384304067
-1.2789038358334266
-1.294702552205095
1.096187232841448
-0.13250564284844024
-0.2228427101268513
-2.243157437839758
0.8332865350046286
-1.0912174960681889
-0.32063217604432614
2.4221350312090957
-0.48452649694791394
1.1685791174301663
0.23373866767058793
-2.2359597761626064
0.40275261524120765
0.8056869390328993
-0.10264991577469207
-0.006031740816035969
0.8366172018930671
0.28775945665903857
-1.8163722199614647
-1.6320782135734881
0.06310575056871992
-3.535054027505746
-0.057143259655492495
0.2292908275323743
0.7858729545404217
2.5390649791952313
0.2601739642430678
-0.6462999180968213
0.38243548994294496
0.5883321508581612
0.06184783264579474
1.7570972979968942
-0.933369260915429
0.44024212783887773
-2.009073735294478
-2.0262475837022618
-0.11707230177532468
0.7710624785474303
-0.33230921965500015
2.5147132196538706
0.7287734429612045
0.8425942460228306
-0.49677867827452193
0.32863247545686014
-1.036226299869886
-0.5902975910305391
-0.028546650021296527
-0.41708851332538954
