-0.8189444527644245
0.4905669955404155
0.2965290054932007
1.4317695622782942
-2.700030673428962
1.0791909482033761
-2.0625759751420167
1.59569041343598
0.3216895172968174
3.019048429390896
-2.2198853179702938
-1.9909813844533595
0.1884548809409975
-0.9949518121754053
0.1784038279619986
0.8266670282081421
0.6720960304069203
-0.9315343033595552
-0.46975507158749996
-1.1601791120067597
-0.05057873897875742
-1.0698756342474751
1.2597056441444687
-1.3977157660597577
0.8234864204905417
-2.6741878877857927
-0.9462137677104462
0.8245520890273386
0.7248195847060974
-0.06639190141960782
1.4710453213908532
-0.005799358750402828
-2.105153789603937
0.25393944642738686
-0.949690442084117
-0.825051858627326
0.9998324833331838
1.010831856085326
1.122452942197265
1.3905076919599726
0.3095507715876188
-1.4217386654419688
-0.4631574508439149
-0.7382020262207325
0.33793889793662935
1.7745757920204563
0.7656697960083134
-0.8651891318901669
-1.6571435677137822
-0.2939192941190858
0.9428056979753827
-0.8702932170036857
-0.7088321868577071
-0.22595413903033312
0.5384389368342517
-0.8983639289312689
0.14967671694019313
-0.48970374470068023
-2.022973988672007
-1.6700538573329387
-0.3755575679348564
-0.1474203182943138
-1.8007283429490126
0.8473591906124303
-0.3647499265318065
3.4071384961403313
0.8635310332670527
0.9277183725999456
-0.7830277690539751
-2.0570128663243104
1.284120496252498
0.14504541749528066
0.6684457378799742
1.0577214875773597
-0.40933390618467036
1.4016222718622435
-0.7422356906012892
-1.619282694487044
-1.0314003947276595
-1.6860269601589075
1.7549520573039237
-0.7833015129414052
2.4243355174782004
-0.7664387218677652
-0.48549622157873074
0.28151863522410303
-0.19621288462985242
0.3916792122666046
-1.2388244762559282
-0.506784939900579
-0.2780174631812937
1.4078865412015238
0.7138831354361423
-0.6901380360437662
-0.9107956820247509
-0.3101862777639478
1.6164411871140643
0.35255369556959193
1.7838577167149676
0.9671283964942377
-1.8952221142385244
1.8323759899902603
-0.46330357190513916
-0.6692452212666052
-0.9859580971988661
1.1215936179661816
-1.4722964871238775
-1.10490662853448
1.7282453059713005
1.1149349980053798
-0.5247011302018515
-3.934259386891996
0.344157735398003
1.6235692810477769
-1.724044656681238
-0.4333583321345874
0.8995588623432749
-2.5158241256048397
-1.5181699072846242
0.039925338647796904
-1.4855893010155437
-1.928081865483239
-1.760306838247871
-0.5413947200177348
-0.1410016181970557
1.6435740614294323
0.1304319632091121
0.4652359410816038
-0.06668687961634157
-1.134252233935955
-0.33791833742431354
2.8033051653670364
1.154761581261665
-0.4049493462584368
-0.22417774818816916
-1.472052673038169
0.7347396153963068
0.2168760903341198
0.5617530907168031
0.2390258417303024
0.3739912527141318
1.6961674493026102
-0.5383817572115195
2.3041353903348867
-0.6409203697053301
2.258164269550765
-4.299113265457921
-1.8967921936142715
-4.442730905855175
-0.20416527485456148
-1.0931335402844207
-0.223039669375644
1.0676632594858524
4.973685120807301
0.7195523254977787
-1.1914018235231754
1.9076636778760365
1.4971875729512725
0.37057716194497226
-1.9348011040523883
1.1316030973007236
-0.4716282629687112
0.19926843008957074
1.0243287419947986
0.7164419139349207
0.6130163507315567
-2.176165524062288
-1.746893508472696
0.3521356707693363
-2.6830695579498562
2.64207063649952
-1.849918827646742
-0.5180084399465044
0.09733545909275287
-2.164568994651286
1.0752401990180047
1.0898990829601414
-0.15442033846426606
1.280401964283545
-0.4083897262925149
0.33798170983154896
-2.1873774248740196
-0.3338037869228039
-1.558651160245836
-0.5725327316727845
-0.8710151848634861
1.7881950208546966
-1.3130922117839505
-0.035558186001625636
-0.9246398855493726
-1.831884072458458
1.6720014487007022
2.0382477295028325
0.5694421531673037
0.02432527043955035
