0.9252157889166388
-0.6329531318825047
-1.2298620514734018
-0.6766186274262604
-1.0561673429974807
1.142176623147867
1.6905188319439794
0.7625621795822872
-0.21079768136275745
-0.430967744574863
3.475451878879358
0.8971449326934331
-1.0122744828138663
0.41259322099508666
-0.11899176182202054
-0.10486975222238037
0.21208125510294396
0.6862150642278046
0.22610602798922408
-0.9928989166910355
0.8150325801667191
0.7275593759090242
0.4699860659157524
-2.1000036013018
0.8039811531678951
-1.5798586219339041
0.10468269010031539
1.0431039292827609
1.1346661695892957
-1.6249759643070036
-0.10194206950495976
-0.5756990287072619
1.7927902788244272
-2.216192797606001
-0.8461066058065774
0.9906087834411748
-1.6527115133501147
0.6194799122050818
-0.9177553783174079
-0.2438925713086676
-1.7010842988404042
2.7415322948276293
-0.056650399246834904
1.3168553712296904
0.526721086720431
0.30315061207176175
1.9413217468705835
-0.20874946044536147
1.5897279207102324
-0.9940756047671753
-3.589918002199103
-2.3209082002366723
1.813639355439122
1.3276236950112414
0.38001287924252003
-1.2378389146016855
0.2146369826334512
-1.868828988793387
-1.6733385013177013
-0.19068523923469982
0.1482765046504897
1.388266775743054
0.5910115500732527
-1.5699849601347435
0.30093158802823816
1.2584951562051832
0.018201275440014042
-1.810135394464588
-1.2757757563036238
2.3070252915930523
-2.14501310899056
-0.8615474109502453
3.088801221023496
-0.5010613834880797
-0.8695479384960899
0.6837913841693131
-1.760591473371973
0.17381902297761687
0.2504888866127477
-0.3460386637351882
-1.7051548937278613
1.5945095587685336
0.9878783278205427
-1.6032050348613258
0.5877118121105038
1.6672985224379553
0.9335529384207535
0.08273359015904791
1.343530241021452
-0.2656671231535208
-1.8761927978501118
1.0963341418770944
0.24343486962902172
-0.18676301575185916
-0.5143272810674849
0.6724348921653258
1.6191402343508594
1.3152539161384853
-0.6690723641314006
-1.877523139280386
0.8062249841126081
-1.180986332778423
-0.6149381708114567
-2.5075005149225147
-1.6552569933402597
-1.287937672817531
0.07742086538835402
1.0257639737375872
0.7387081981865529
0.5478885403828362
-0.4773285049356777
0.7640114634379187
0.1264530938313998
1.87848270478487
2.2727880771637166
1.2954970883961052
0.6355499759910685
0.1829224161759342
0.8862709282494978
-1.2098911623843585
0.8522274020749212
-2.261957636489755
0.33298884291912556
1.9115557706500939
-0.32747164765648196
1.1919836668420694
0.3953308510344853
-0.35980855455169447
-0.24458546940290127
-1.7824178262200499
-0.6926402982865961
-0.0696855778899973
2.690144453533243
1.49641015863057
-2.4835013141752578
0.48952136544263525
-2.544843234198237
0.7961715559882996
-0.8911797738137505
1.7395859388659694
0.09660103501766115
0.9211868337791471
-1.4754541234028204
-0.332916377663682
1.1616053246004174
0.6346405227412415
-0.45916707194902096
3.1319856742800996
-0.15915041021463538
-1.5068335699937858
1.4254490114562524
-0.19225078039921806
0.8416204073114464
-1.370167764380767
2.1740229091332757
-0.46262061220237993
-1.9041303420339446
-0.07841217330742889
-1.5371690172443246
0.664356294839096
1.2019843398555314
1.2626284086158677
0.501369383431463
-1.3627116673921253
0.9355396820328687
-0.6246230021175648
-1.1653602392135003
-0.07497490140784535
1.6928774712944028
0.7760457809562684
-0.9782106919174636
1.056938227911154
-0.8525234191903478
0.19836339927476798
-1.9721385804280382
-2.429452781800095
-0.02524330011496778
0.7254517155364222
1.4069267076229446
-0.43826735796136185
-1.437018027893151
-0.6167863458290778
1.029481706664716
-0.29168946597835843
0.9360730550542289
0.7142365192734199
1.4324567945185906
-1.2654873995420743
-0.10797855251259703
2.7979992453517477
0.5257976001489819
-1.5674031009594798
-0.6424716415230882
0.752354295008095
0.32291329086580667
