0.015505432960161047
1.7116341792254062
1.415789470752736
0.27230453127997234
-0.012406331185713326
-1.0532077347257274
-2.336311791763161
1.8022134427711203
1.3342759530202404
1.693761916058901
-0.993119481471786
1.4808520124933369
0.42855856236911904
0.4621080163207938
-0.46399522526553416
-0.9483177279269108
0.6102349648929295
-0.7723894295621955
1.2071763880678361
1.61533610804416
0.6230932050852427
-0.5463147214061598
0.2744834134469555
0.5010147356124124
-1.2162347736712558
-2.69518191393144
-0.42980605291099105
2.4738654611804254
1.6798713090991617
-1.401715272091335
1.5148506522760878
-1.2292233179919427
-1.4003652237205457
1.458135624994636
0.40680861676964064
0.5983749391992452
-1.936918171939666
1.4911351422966237
-3.4006184662052212
-0.31272835980169167
-0.9956880883210284
-1.901062151025212
2.1894582501864743
2.430213407050315
-0.618776831309865
0.4536896940839469
-0.1256022125297327
1.2098477692185292
-1.0219158318468886
0.9037547455287274
-2.3879564575204837
0.3025660990032041
0.029794134291814545
1.6175331819596894
-1.1188304209945117
1.1611594162913486
-0.697032522524429
0.021661372569661164
0.3965221554066918
-1.1950735942946993
0.31543622293417817
-1.3550718430915687
0.3314834570720109
0.5942925673882753
0.42391690652762515
-0.8484362427075446
-1.8661513525594629
1.260943041659754
-1.2360613201879893
-0.5645127090528088
3.044783271217531
0.8852624061854053
-1.6394289716654575
0.2668154843456608
-0.21330986096557814
-1.9169398843690337
-1.758702035499548
-0.5710278168223494
1.2665822153093662
-1.0997790513148553
1.0737641190342024
-1.448967238591579
0.14283506875910745
-1.4892383755563143
1.0024482933661867
0.6624057415418043
-1.1102833734883701
-0.6260648408536902
0.45027083459143247
0.0739959384406963
0.8862896028115663
-0.10476507424049675
0.661379884592594
0.5974118302412679
-0.9758968447273176
0.47925014980049485
-0.6880312151557681
1.2574731668364292
2.8909935991857774
3.431707624000352
0.3703432184388792
0.02835601422943501
0.7997446595081614
-0.04309405474299155
-2.261597745131412
0.6505400487189492
0.19526010463959698
-1.2873423537076936
-1.0681335535512748
-2.0922248335841958
0.9195910164446004
-0.5203661705755941
0.4106310410272853
-1.1213898732866316
1.5681030728730736
-0.3642433856884757
1.3182742815886894
-0.6495968164309397
-1.214173407878444
1.7121193926724891
1.6447436717060997
2.3672962690894384
-1.5602295168857458
-0.11058390502462812
1.5768416734793944
-0.6013130755224319
-1.2126173478461726
-0.10126487094987024
1.2681942366818206
0.7489975895012457
-0.14689276605366897
0.0021051484359216888
-1.8276203645869864
1.4342795052511068
0.6287474994134359
0.5336174831192704
0.7835815903450474
-1.557576579372367
-1.9246845653207052
-2.3882946095649134
-0.5378514253534817
-2.9097403050583512
-0.19016985866998792
0.7739507711250524
0.9051489293673558
-0.4500217323888326
-1.230470388337805
-0.6307819283238901
-1.2562768887259752
-0.04624794397333609
1.859569650534815
0.1787376491167184
-0.06269835670875512
-1.3912222575178803
-0.2589465658453184
1.1330484043334885
2.216087710975475
-1.837981316124811
0.84948991605023
-0.6939252593963536
2.2778725193355958
-2.532712569149725
-1.9302930653038053
0.8704542223386049
-0.38798234006592536
0.614061368725979
-0.15020505680173757
0.29541367345044145
-0.9574469295742104
-0.028160310190929794
-0.5790873533166814
-1.377070356104233
-1.4079625600426282
0.11924475415446767
-2.683859919226357
0.1597183435205899
0.9116865916090284
-1.216488915500277
3.44885608339521
1.9791336580584482
-2.244215581175861
1.056037694798086
3.069378144261122
2.838331582019948
1.7139614190776018
0.024005145732882593
-2.2068222616459847
0.8691730667752107
-0.18357221844551408
-3.7955128267192144
-0.9761534729225606
1.1331869477443255
-0.9227832627072395
-1.2668914467324122
-1.870880040393657
