-0.013547160578254003
-0.07444837578303509
-0.7937120991749675
-0.11290696165221537
-0.42711260075763036
-0.6111449773438944
0.4227309334071896
-0.06135655486997715
-0.2574525818317065
-0.9422432234458817
0.3834276326124224
0.3385901997895887
-0.2529983403451499
0.4080118475611867
0.3209568398646404
0.058020004287657634
0.037832201722096004
-0.3797118970485375
0.7688889459265971
-0.5287864936798672
-0.6235748743874848
-0.6395285531495211
0.5921133392973434
0.5777719529226435
0.486443666363662
-0.9264956304227061
0.47902184452775953
-0.1369940409361946
-0.8275915621890461
-0.41281527268442786
-1.0768006880175334
-0.42259023169842824
-0.18501400847078542
0.16938264115894686
-0.22341606457991892
0.11201020882351576
0.7868813625593702
-0.5673134994529545
-0.2676967985012709
-1.2990694634890363
-0.09387277705793873
-0.9318880174998757
-0.8646307265729692
-0.03173101299544079
-1.0480941781546953
-0.30104779471271503
-0.577606592905128
0.1963647003220127
0.6237208004501162
-0.5154776581489696
0.1331846888670254
-0.4396185057298957
0.24719765147046524
-0.5349968783197353
0.899750583263198
-0.5759289034172506
-0.2034688846371776
-0.01911240583743412
-0.3033729286035306
0.4887149277969508
-0.06915895649477954
0.2857750117129484
-0.23518214652274527
-2.313205720640906
0.4541331235278202
-0.9574970739493583
0.3393175485439016
0.7332075901387332
0.26576432722158616
1.7952445214641157
-1.2450358242440969
-0.1372403414083858
-0.7205932529535489
0.43318917662354195
0.9726975191486584
-0.40876327196085616
-0.5577649469743275
-0.7784389317162104
-0.09060539495063469
-0.891455574692341
1.0300280433923552
-0.7698294649305689
-0.07564497895580236
0.27930958355502
1.1404850432592148
-0.2428622363014057
0.010196700974830608
-0.3428674422830351
0.3773829421888921
0.5946504752816351
0.2691521684227006
-0.2923291656715391
0.03787699001038447
0.36059410863272545
0.4910179051407586
-0.7990124216163811
-0.46904781936052065
0.5362655445443578
0.3156835468922421
0.6423078871866101
-1.6298578197584033
-0.42519511749319305
-0.043221904733398486
-1.4866161845890442
-0.40435206716328786
-0.37673770634009607
-0.09339628279739753
-0.6206392695018864
0.1805079763817372
0.22865833752525988
1.4140808016573745
0.2906599864097711
-0.0662526863819286
-1.251089885893595
-0.10817806803334673
-0.4895994944124902
-0.8152195618912672
0.23395897051888337
0.2590736175599738
0.03220196160025024
-0.9699782133467331
0.21336688076958588
0.5355885423591382
-0.1716865370132835
-0.45782812265698436
-0.9223889726213036
-0.7683200654368632
-0.13058742178903204
0.38405119245601993
-0.1906447527261158
-0.5411067777086044
0.10860685034187467
0.8833495808298255
0.316802707507992
-0.06048225991988099
0.38596710270961887
1.2736424358325196
-0.4858257523850019
0.6898868714990729
-0.5028705407905197
-1.6264187587264565
-1.0575197693185268
-0.3504596948874775
0.3837560641619623
-0.22434943004349306
0.3116304464858961
0.5254121426405574
0.16266422182466378
-2.2461131753143118
-0.45058251887555
3.574905087589758
1.1206456082677996
-2.355519665227739
0.710632761197991
-0.11720029516471131
-0.8484283366273768
0.26152962359720744
-1.0782790665957591
-1.8120118985858298
-0.6490549026784284
-0.3737892594440445
-0.13899678247419023
0.4748646340057463
1.8733125947136955
0.7881149941363808
2.8805252864865403
1.9530822409933632
-0.5482299106929263
-0.14937955342462872
-1.6618061609293537
-2.0953335890444764
-1.460787865790139
2.0973053850711443
0.38507974621956864
2.4505262996286357
0.5278635792800086
-0.5785445864751011
-3.145462002999549
-0.4819645157731822
2.974566990843508
0.3731235716762167
0.18209611072432919
-0.8100023969546796
-2.0221915950836484
-1.0236121154862632
-0.5484840226865474
-0.676839976885106
-0.877443367848496
0.2183073928753686
0.965178926546074
-0.26597384335280394
1.698840338283392
-2.3713885197127333
-0.9436935881657831
-0.143538128926872
