-0.5521247413391016
0.1595750760656116
1.8632774471882452
0.5233610417818249
0.9556657156273549
1.5474393855306476
0.2406243776996484
0.6532306864906363
-2.0939274663826453
-0.17136759489996367
-0.9703096291955416
-1.6328899719995795
-0.8039480863194843
0.03723300288694931
-0.6510951774967354
0.542448032731528
-0.691836994171052
-0.6363368412213515
-6.846547843759598E-4
0.21425109631429717
-0.24554046232662075
0.11176729987682077
1.5262263464762733
-0.03788699502066872
0.9816385336038798
0.6458325356515597
-0.17614470628272116
1.1829849307569473
0.4122788934196787
1.3396964154318263
-1.6186879400274954
0.9352484594320796
0.5422282334889461
2.2188780010995313
0.41952533018134497
-0.8182039981187453
0.31518418773531787
-0.3702057770440952
0.6269682408077508
0.43292355364631663
0.3282848891914568
0.06718794044935639
1.0109990900162928
-0.4504990490899665
0.20602572601677893
0.41158513940909514
2.2086648671885962
0.5692702127590317
-0.3792842239891373
1.0740138699620136
0.43558726820810856
-0.07485778827077227
-0.04517603575488027
0.37643171674345155
-0.19239700711276675
-0.16915539124247247
-0.2988071529487589
0.32862482671151827
-0.018575193206514906
-1.581797204513805
-0.07482986860879426
-1.3568496343564855
-0.3910316606293963
1.3125778093768639
-0.8375364487584537
0.4381766466609063
1.1383871431536587
1.1754021206492942
-0.15180460189562694
-0.4072901139145799
-0.7962011754203532
0.6466644726020903
-0.2131925191755405
0.42796326010342944
0.39086979192687044
-0.027408933738178876
0.9246457475112553
-0.49671787963090663
0.9902339701584113
-1.119659015495992
-0.8736134941806227
-0.9449367196029392
-0.009090943083171155
0.5591646848380143
-2.877988059987201
-0.22173168517574893
-0.06538226815122239
-0.46926731816570244
0.04509187922501057
-0.8086523139139521
1.5496689296045019
0.5901868897874742
-1.3386430169877048
1.9885204353253858
2.7425811240278204
0.9402818259921231
-0.6082099200248124
-0.12990411022728043
-1.8613325555943256
1.6551188250501325
1.2702644305265536
0.05826897296335476
-0.3408842747228267
0.925434483991538
1.5640493653411598
-0.6611864336822001
-1.0543804232218958
0.15845042425429856
-0.552312135929248
0.6845866700429617
0.25734276132361367
-0.08084991301016675
0.27366573187367227
2.009399214508969
0.5281449521235775
0.690293160228483
0.806766062032714
-0.9469766005033868
0.25304572915305257
0.4698555973015367
0.8746492207852175
-1.0236592065513248
-0.646852773783709
0.2942186773650388
-0.08766723194193249
0.9537800813373862
0.3307755820688283
0.16223382713002443
-0.6338092469606668
-0.7641732668516482
0.029385831406773866
0.25203358670875553
-0.18022282666293832
-0.06352871331680676
-0.636758014869834
0.9195711527429795
-0.16649979513442803
0.01079662067424747
0.06262785627118317
0.6934406593885827
1.4191742054138867
1.1421571366021814
0.8912996476623205
-1.086231080227416
0.5942219205460628
-0.022374363627371663
-0.40211124030243905
1.0187778212822598
1.6581646011744784
0.5664252173398232
-1.3591523804170347
-1.8334225300648208
-0.5990425251658694
-0.8261162236613325
-0.8035857388780382
1.957103287051531
0.2949782791737392
-0.6094148508153615
0.23859852477104748
0.2625344879118384
0.455027635509777
0.8890129653154561
-1.7664282378725407
-0.004785615091209894
-0.19659113352626167
-0.15326301777843
1.8455594637454755
-0.75995924128798
-0.6013939557122758
0.1502793298391798
0.7726064077693184
-0.6160244759834569
2.315243870366283
-1.7035309085022827
0.213730096022961
1.5462823674154307
1.0073599226411887
-0.6268625261322491
-0.9827932890856125
0.49036197382211344
-0.3266780394521508
0.015443569884099007
2.004830722047669
-1.6951501163986973
-0.4670495984768809
-0.789649187172886
-0.5192127185913167
-0.8981768749710802
0.1471211296181345
1.12786975870889
-0.3100216962835417
-1.0184431730215884
-0.022436734246605528
0.8804157768543177
0.05680200052500184
